SVM-light Version V6.02
0 # kernel type
3 # kernel parameter -d 
1 # kernel parameter -g 
1 # kernel parameter -s 
1 # kernel parameter -r 
empty# kernel parameter -u 
24989 # highest feature index 
51200 # number of training documents 
14171 # number of support vectors plus 1 
-1.2793737 # threshold b, each following line is a SV (starting with alpha*y)
0.095066922858689020814360048916569 2:1 5:1 58:1 246:1 585:1 832:1 #
0.095066922858689020814360048916569 2:1 6:1 217:1 233:1 270:1 462:1 #
-0.095066922858689020814360048916569 2:1 10:1 11:1 12:1 24:1 66:1 96:1 98:1 166:1 328:1 337:1 #
-0.057367319787741483105847350998374 2:1 11:1 12:1 16:1 37:1 55:1 179:2 1550:1 1556:1 1672:2 10225:3 #
0.095066922858689020814360048916569 2:1 5:1 6:1 120:1 416:1 490:1 837:1 #
0.077762693824329473524237243964308 2:1 19:1 57:1 74:1 263:1 384:1 449:1 699:1 9828:1 #
-0.095066922858689020814360048916569 2:1 4:1 9:2 57:1 180:1 373:1 #
-0.095066922858689020814360048916569 2:1 6:2 15:1 19:1 20:1 33:1 40:1 41:2 57:2 349:1 550:1 #
0.095066922858689020814360048916569 2:1 24:1 34:1 50:1 97:1 176:1 7438:1 #
-0.095066922858689020814360048916569 4:1 5:1 9:1 14:1 20:1 80:1 165:1 #
-0.095066922858689020814360048916569 2:7 6:2 15:2 70:1 110:2 304:2 #
-0.095066922858689020814360048916569 2:1 6:1 9:1 12:3 16:1 29:1 37:2 115:1 444:3 751:1 #
-0.095066922858689020814360048916569 4:1 7:1 14:1 21:1 43:1 45:1 210:1 #
0.095066922858689020814360048916569 2:1 4:1 5:5 21:1 31:2 37:1 38:1 46:1 69:2 165:1 #
0.095066922858689020814360048916569 2:1 5:2 9:2 10:1 37:1 39:2 67:1 90:1 91:2 102:1 12495:1 #
0.095066922858689020814360048916569 2:1 5:5 13:2 29:1 32:2 38:1 39:1 46:1 56:1 79:1 81:1 105:1 149:1 158:1 166:1 680:1 1401:1 7369:1 9907:2 #
0.078990682889454960635688962611312 2:1 4:2 5:2 9:4 10:1 15:1 68:1 90:1 107:1 600:1 636:1 1322:2 1374:1 1462:1 2600:1 2610:1 3886:1 #
0.095066922858689020814360048916569 2:1 5:1 9:1 31:1 37:1 39:1 91:1 124:1 126:2 314:1 #
-0.095066922858689020814360048916569 4:1 5:1 20:1 41:1 53:1 61:1 67:1 118:1 165:1 1513:1 #
-0.095066922858689020814360048916569 2:1 10:1 22:1 23:1 94:1 241:1 #
-0.095066922858689020814360048916569 6:1 10:1 41:2 57:1 74:1 86:2 94:2 113:2 371:3 #
0.095066922858689020814360048916569 4:1 6:1 9:1 14:1 80:1 353:1 459:1 538:1 1066:1 4326:1 #
0.095066922858689020814360048916569 2:1 5:1 19:1 29:1 34:1 703:1 #
0.095066922858689020814360048916569 2:7 6:1 10:1 12:2 15:2 18:1 41:1 63:1 91:1 116:1 158:1 944:1 1087:1 1402:1 1519:1 5661:1 #
-0.095066922858689020814360048916569 2:1 29:1 37:1 51:1 69:1 4797:1 #
0.05892235506082792173554452119788 2:1 11:1 23:1 100:1 1941:1 2390:1 #
-0.095066922858689020814360048916569 4:1 5:1 7:1 21:1 39:1 46:1 7119:1 #
-0.095066922858689020814360048916569 2:1 5:1 13:1 32:1 58:1 81:1 #
0.095066922858689020814360048916569 4:2 37:2 38:2 42:2 163:2 #
-0.095066922858689020814360048916569 2:1 10:1 11:1 12:1 77:1 156:1 #
0.095066922858689020814360048916569 11:2 12:2 14:1 24:1 28:2 37:1 42:1 68:1 333:1 433:1 1083:1 17082:1 #
-0.039129635342648898255202283280596 2:1 11:1 12:1 27:1 37:1 734:1 #
0.095066922858689020814360048916569 2:1 4:1 20:1 37:1 42:1 4175:1 #
-0.095066922858689020814360048916569 6:1 17:2 47:1 63:2 1355:1 #
-0.095066922858689020814360048916569 7:12 153:1 2425:1 3631:1 22025:1 #
-0.095066922858689020814360048916569 2:1 5:1 11:1 16:1 21:1 39:1 68:1 333:1 #
-0.095066922858689020814360048916569 67:1 386:12 #
-0.095066922858689020814360048916569 17:1 63:2 481:2 1066:1 1438:1 #
0.095066922858689020814360048916569 2:7 5:1 9:1 11:1 15:1 16:1 20:1 21:1 39:1 46:1 57:1 63:1 74:3 93:1 96:1 165:2 273:1 #
0.095066922858689020814360048916569 2:7 21:1 31:1 44:1 57:2 74:1 108:1 373:1 739:1 #
0.095066922858689020814360048916569 2:1 4:1 5:1 10:1 15:1 16:1 21:1 25:1 41:1 46:1 244:1 755:1 #
0.095066922858689020814360048916569 2:1 5:1 39:1 469:1 6698:1 8526:1 #
-0.095066922858689020814360048916569 4:1 9:2 14:1 25:1 28:1 30:1 42:1 91:1 353:1 711:1 #
0.095066922858689020814360048916569 4:3 5:2 10:1 11:1 12:1 16:1 17:3 21:1 22:1 35:1 37:1 39:1 40:1 75:2 630:1 936:1 2231:1 2808:1 5105:1 12580:1 #
-0.095066922858689020814360048916569 2:1 5:1 9:2 12:1 24:1 30:1 31:1 91:1 109:1 178:1 #
-0.095066922858689020814360048916569 2:1 15:1 17:10 110:6 150:1 #
-0.095066922858689020814360048916569 2:1 17:10 2728:6 #
-0.05573709129685604224402339923472 2:1 6:2 11:2 12:1 15:2 16:1 18:1 19:1 96:1 270:1 360:1 603:5 #
0.095066922858689020814360048916569 2:7 5:1 9:1 12:1 18:1 22:1 23:1 92:1 203:1 481:1 510:1 571:1 6601:1 #
0.095066922858689020814360048916569 2:7 12:1 15:1 23:1 25:1 68:1 148:1 2707:1 5057:1 10055:1 15601:1 23916:1 #
0.095066922858689020814360048916569 2:1 6:1 9:1 11:1 12:1 731:1 893:1 977:1 #
0.095066922858689020814360048916569 2:6 5:2 9:1 15:1 41:1 143:1 333:1 2366:1 #
-0.095066922858689020814360048916569 2:7 5:2 12:1 13:1 25:1 38:1 74:2 85:1 112:1 302:1 #
-0.095066922858689020814360048916569 6:5 15:1 18:3 25:1 925:1 1044:3 3182:1 #
0.095066922858689020814360048916569 2:1 6:5 11:3 12:3 17:2 19:5 349:1 1700:1 3272:1 6361:1 24806:1 #
0.041826794481165802119804197900521 2:1 6:4 15:2 17:2 18:3 19:1 185:1 201:1 308:1 1194:1 2083:1 #
-0.095066922858689020814360048916569 2:1 10:3 12:1 18:2 41:1 63:1 67:1 123:1 439:2 3913:1 #
0.094389607834021505006205643439898 4:1 6:3 7:1 15:1 17:2 46:1 73:1 101:1 272:2 397:1 533:1 721:1 853:1 #
-0.095066922858689020814360048916569 4:1 6:3 15:1 17:2 18:1 19:1 29:1 69:1 87:1 185:1 201:1 308:1 1172:1 1194:1 2083:1 3665:1 #
-0.095066922858689020814360048916569 6:3 17:4 18:2 19:2 164:1 1042:1 1427:1 1668:1 2369:1 3531:1 6467:1 #
-0.095066922858689020814360048916569 6:4 15:1 18:2 19:1 22:1 153:1 272:2 422:1 #
0.095066922858689020814360048916569 2:7 5:3 10:1 11:1 13:1 15:1 16:1 32:1 38:1 45:1 65:1 81:1 118:1 123:1 139:1 332:1 1510:1 2003:1 #
0.095066922858689020814360048916569 2:1 4:1 5:1 6:4 9:1 15:1 18:3 22:1 26:1 46:1 55:1 92:1 771:1 798:1 1042:1 1427:1 1668:1 4379:1 6112:1 #
0.012829134139595896324514967545838 5:1 6:4 17:1 352:1 1314:1 2645:1 21405:1 #
-0.095066922858689020814360048916569 6:1 9:4 12:2 31:1 40:1 51:2 53:1 75:1 90:1 107:2 148:1 831:1 #
-0.077138528282984258899190876945795 6:2 9:4 15:1 24:2 54:2 107:2 110:1 2091:2 #
-0.095066922858689020814360048916569 2:1 4:1 5:1 25:1 39:1 306:1 #
-0.095066922858689020814360048916569 2:1 4:1 11:1 16:1 42:1 45:1 79:1 #
-0.095066922858689020814360048916569 5:1 12:1 13:1 14:1 31:1 112:1 #
-0.095066922858689020814360048916569 2:1 5:1 9:2 10:1 13:1 20:1 29:1 38:1 57:2 74:1 80:1 112:1 143:1 267:1 460:1 2570:1 #
-0.095066922858689020814360048916569 6:1 9:1 24:1 43:2 86:1 99:1 120:1 165:1 595:1 908:1 #
-0.095066922858689020814360048916569 2:1 5:1 9:1 13:1 21:1 32:1 46:1 48:1 93:1 #
-0.095066922858689020814360048916569 9:2 10:1 12:1 15:2 18:1 24:2 31:1 107:2 119:1 150:1 191:1 275:1 #
-0.095066922858689020814360048916569 6:4 15:1 22:2 484:4 #
-0.095066922858689020814360048916569 6:3 18:3 19:1 22:1 422:1 2736:2 3904:2 #
-0.095066922858689020814360048916569 4:1 6:3 9:2 15:1 17:2 40:1 43:2 63:1 91:1 333:1 352:3 636:1 #
0.095066922858689020814360048916569 2:1 6:1 9:1 11:1 16:1 25:1 95:1 415:1 #
-0.095066922858689020814360048916569 2:7 4:3 5:3 15:1 89:1 164:1 222:2 499:1 #
-0.095066922858689020814360048916569 2:1 5:1 6:2 10:1 15:1 18:2 37:1 38:1 94:1 113:2 149:1 272:1 288:1 1151:1 1382:2 #
-0.095066922858689020814360048916569 2:1 4:1 5:1 13:1 14:1 20:1 32:1 34:1 108:1 302:1 703:1 #
0.095066922858689020814360048916569 2:1 5:1 39:1 939:1 1539:1 3735:1 #
-0.095066922858689020814360048916569 4:1 5:1 7:1 21:1 46:1 145:1 #
-0.095066922858689020814360048916569 2:1 6:5 9:2 17:2 18:1 19:1 948:4 2268:1 3759:1 4206:1 #
-0.095066922858689020814360048916569 6:1 9:2 15:2 20:1 51:2 59:2 69:2 110:1 4954:1 #
-0.095066922858689020814360048916569 6:1 9:2 15:1 18:1 22:1 50:1 88:2 115:1 120:1 1031:1 1362:1 #
-0.095066922858689020814360048916569 2:1 5:1 6:1 19:1 41:1 3502:1 #
0.095066922858689020814360048916569 2:1 5:1 9:1 15:1 16:1 19:1 23:1 35:1 41:1 75:1 98:1 110:1 299:1 779:1 14029:1 #
-0.095066922858689020814360048916569 2:1 5:1 12:1 13:1 32:1 55:1 246:1 #
0.095066922858689020814360048916569 2:4 6:1 10:1 13:1 14:1 24:2 66:1 156:1 242:1 274:1 731:1 870:1 1626:1 2092:1 #
0.095066922858689020814360048916569 2:1 5:1 6:1 69:1 459:1 1724:1 #
0.095066922858689020814360048916569 4:2 7:1 13:1 25:1 42:1 203:1 318:1 363:1 1069:1 #
-0.095066922858689020814360048916569 2:1 9:2 10:1 24:1 30:1 42:1 91:1 119:1 1986:1 #
-0.095066922858689020814360048916569 2:1 12:2 15:1 23:2 53:1 64:1 506:2 #
-0.095066922858689020814360048916569 2:1 4:1 6:1 23:1 33:1 40:1 41:1 550:1 #
-0.095066922858689020814360048916569 2:1 4:1 5:1 10:1 13:1 46:1 107:1 112:1 392:1 #
-0.095066922858689020814360048916569 2:2 87:1 4050:1 6386:1 12113:1 13269:1 #
-0.095066922858689020814360048916569 4:1 9:1 14:1 28:1 42:1 91:1 326:1 599:1 #
-0.095066922858689020814360048916569 2:7 4:1 5:1 27:1 28:1 37:1 38:1 43:1 149:1 185:1 308:1 #
-0.095066922858689020814360048916569 4:1 9:3 16:1 19:1 28:1 30:1 31:1 42:1 91:1 115:1 249:1 733:1 #
-0.015040815570644298221347767707812 2:1 10:1 11:1 12:1 67:1 721:1 #
-0.095066922858689020814360048916569 2:7 4:1 5:2 19:2 30:2 38:1 1220:2 1257:1 #
-0.095066922858689020814360048916569 2:1 5:1 12:1 13:1 32:1 55:1 246:1 #
-0.095066922858689020814360048916569 2:1 13:1 23:1 54:1 83:1 99:1 135:1 #
-0.095066922858689020814360048916569 2:1 5:1 9:1 15:1 17:2 19:1 27:2 30:1 40:1 101:1 290:1 308:2 561:1 #
-0.095066922858689020814360048916569 2:1 5:1 10:1 11:1 18:1 28:1 39:1 185:1 273:1 #
-0.095066922858689020814360048916569 2:1 4:1 5:1 9:1 10:1 55:1 84:1 221:1 343:1 738:1 #
0.095066922858689020814360048916569 2:1 4:2 5:2 9:2 13:1 59:1 75:1 112:1 145:1 302:1 #
-0.095066922858689020814360048916569 2:1 5:1 9:1 11:1 16:1 21:1 39:1 95:1 347:1 #
-0.095066922858689020814360048916569 2:1 4:1 5:1 9:1 20:1 25:1 31:1 128:1 195:1 #
-0.095066922858689020814360048916569 2:1 5:1 29:1 34:1 64:1 97:1 #
0.095066922858689020814360048916569 2:1 13:3 23:2 44:3 180:1 287:1 495:1 1793:1 #
0.095066922858689020814360048916569 2:1 9:1 18:1 23:1 27:1 41:1 70:1 91:1 302:1 638:1 #
0.095066922858689020814360048916569 4:1 7:1 9:1 43:1 54:1 61:1 91:1 150:1 #
0.095066922858689020814360048916569 2:2 10:1 18:1 21:1 41:1 138:1 199:1 264:1 301:1 4244:1 8948:1 20010:1 #
0.095066922858689020814360048916569 4:1 7:1 18:1 21:1 43:1 285:1 11816:1 #
-0.095066922858689020814360048916569 2:1 9:1 15:1 24:1 42:1 91:1 116:6 287:6 #
-0.095066922858689020814360048916569 2:2 14:1 33:8 59:8 #
0.086717252343901068956100175455504 6:1 11:1 113:1 580:1 761:1 1936:1 #
-0.095066922858689020814360048916569 4:1 6:1 7:1 11:1 21:1 40:1 65:12 226:1 #
0.095066922858689020814360048916569 2:1 5:1 10:1 11:2 12:3 13:1 15:1 18:1 32:1 50:1 55:1 61:1 140:1 3397:1 #
0.095066922858689020814360048916569 2:1 5:1 11:2 12:2 37:1 86:1 143:1 164:1 601:1 23913:1 #
0.095066922858689020814360048916569 7:1 10:1 11:1 12:3 13:1 25:1 169:1 229:1 230:1 #
0.095066922858689020814360048916569 2:1 5:1 12:1 15:1 28:1 34:1 185:1 416:1 2115:1 #
0.095066922858689020814360048916569 2:1 10:2 11:2 12:2 21:1 37:1 86:1 #
0.095066922858689020814360048916569 2:1 5:1 19:1 27:1 39:1 58:1 97:1 1303:1 #
-0.095066922858689020814360048916569 2:1 6:3 12:2 15:2 19:2 89:1 958:3 2520:1 4869:1 18113:1 #
-0.090852730875611062422159136531263 10:1 11:1 12:1 14:1 67:1 721:1 #
0.095066922858689020814360048916569 2:1 4:3 5:3 9:1 15:1 16:2 41:1 80:1 91:1 93:1 139:1 #
0.095066922858689020814360048916569 2:1 4:3 6:1 9:1 11:1 15:1 16:1 20:1 21:1 40:1 44:1 59:1 66:2 247:1 339:1 776:1 2058:1 5002:1 #
-0.095066922858689020814360048916569 2:1 6:2 11:1 12:1 18:1 19:1 97:1 326:1 #
-0.095066922858689020814360048916569 2:1 5:1 10:1 39:1 77:1 94:1 #
-0.095066922858689020814360048916569 2:1 5:1 13:1 32:1 58:1 81:1 #
0.095066922858689020814360048916569 4:1 6:1 7:1 11:1 12:1 19:1 37:1 97:1 136:1 2151:1 #
0.095066922858689020814360048916569 4:1 11:1 14:1 45:1 1328:1 5957:1 #
-0.095066922858689020814360048916569 2:1 5:1 12:1 13:1 31:1 44:1 #
-0.095066922858689020814360048916569 2:1 6:2 13:2 17:2 24:2 44:2 158:1 272:1 454:2 879:1 #
-0.041385109349051631133509232540746 2:1 10:5 11:1 12:1 37:1 55:1 108:4 10622:5 #
-0.095066922858689020814360048916569 6:1 9:1 10:1 23:2 41:1 62:1 90:1 91:1 102:1 143:1 2159:1 #
0.095066922858689020814360048916569 4:1 9:1 29:1 118:1 401:1 4945:1 #
0.095066922858689020814360048916569 2:1 5:3 9:1 12:1 17:1 21:1 31:1 38:1 39:1 61:1 85:1 107:1 160:1 892:1 #
-0.095066922858689020814360048916569 2:1 6:1 11:1 12:1 37:1 38:1 156:1 270:1 #
0.095066922858689020814360048916569 2:1 6:1 9:1 10:1 87:1 88:1 94:1 129:1 152:1 12211:1 #
0.095066922858689020814360048916569 2:1 6:3 25:1 63:1 91:1 98:3 199:3 #
0.095066922858689020814360048916569 6:1 10:1 18:1 23:1 41:2 65:1 94:1 308:1 4381:1 #
0.076318240571629336610470772939152 2:1 4:1 6:1 43:1 46:1 60:1 241:1 470:1 2578:1 #
0.066139182237574645206734658131609 2:1 6:4 18:1 33:1 37:1 38:1 41:1 70:1 120:1 1671:1 1880:1 2584:1 #
0.095066922858689020814360048916569 2:1 6:1 9:2 12:2 24:2 31:2 42:2 53:1 60:1 91:2 113:1 684:1 #
0.095066922858689020814360048916569 2:1 4:1 5:1 6:1 34:1 678:1 2132:1 #
-0.095066922858689020814360048916569 6:1 9:2 24:2 30:1 34:1 50:1 159:1 357:1 2053:1 #
-0.095066922858689020814360048916569 2:1 4:1 5:1 13:1 44:1 165:1 #
0.095066922858689020814360048916569 2:7 5:2 9:1 10:1 18:1 20:1 55:1 76:1 84:1 86:1 94:1 139:1 258:1 528:1 634:1 1227:1 #
0.095066922858689020814360048916569 2:1 16:1 18:1 50:1 1031:1 1046:1 1182:1 #
0.095066922858689020814360048916569 2:1 9:2 11:2 12:1 15:1 22:1 23:2 29:1 37:1 53:1 91:1 150:1 157:1 595:1 10759:1 12100:1 #
0.095066922858689020814360048916569 2:1 9:1 11:2 15:1 23:2 37:1 50:1 91:1 126:1 144:1 552:1 #
0.095066922858689020814360048916569 4:2 7:1 9:1 13:1 19:1 32:1 59:1 80:1 136:1 #
0.095066922858689020814360048916569 4:1 7:1 9:1 24:1 25:1 40:1 42:1 54:1 80:1 91:1 99:1 2006:1 7646:1 #
-0.095066922858689020814360048916569 2:1 6:2 12:1 24:1 41:1 98:1 164:1 278:1 1005:1 #
-0.095066922858689020814360048916569 6:2 9:2 18:1 22:1 40:1 99:1 115:1 120:1 290:1 404:1 3099:1 #
-0.095066922858689020814360048916569 2:1 4:1 5:1 9:1 55:1 75:1 84:1 150:1 #
-0.095066922858689020814360048916569 4:1 5:1 7:1 21:1 46:1 145:1 #
0.095066922858689020814360048916569 2:7 4:1 10:1 15:1 20:1 25:1 131:1 802:1 2109:1 18227:1 #
-0.095066922858689020814360048916569 2:1 10:1 23:1 41:1 282:1 782:1 #
0.095066922858689020814360048916569 11:3 14:1 54:3 83:3 254:1 #
0.095066922858689020814360048916569 5:1 9:1 14:1 37:1 39:1 54:1 83:1 91:1 #
0.095066922858689020814360048916569 4:2 6:2 46:2 156:2 164:2 #
0.095066922858689020814360048916569 4:1 5:1 13:2 32:1 54:2 83:2 135:1 #
-0.095066922858689020814360048916569 5:2 15:1 39:2 54:2 162:2 163:2 #
0.095066922858689020814360048916569 2:1 4:1 18:1 88:1 147:1 335:1 #
-0.095066922858689020814360048916569 4:1 5:1 7:1 21:1 46:1 145:1 #
-0.095066922858689020814360048916569 2:1 4:2 5:2 9:1 10:1 16:1 17:2 42:1 60:1 93:1 106:1 319:1 351:1 504:1 1363:1 #
0.095066922858689020814360048916569 2:7 6:3 24:1 66:1 78:1 87:1 191:1 1040:1 1774:1 2444:1 4082:1 6553:1 10353:1 #
0.070826431752405563657681852873793 2:7 4:1 6:2 11:1 22:2 24:1 25:1 46:1 86:1 286:1 380:1 720:1 1606:1 8973:1 11053:1 #
0.095066922858689020814360048916569 2:7 516:1 737:1 5360:1 6311:1 #
-0.095066922858689020814360048916569 4:1 6:3 11:1 12:2 16:1 22:1 37:1 38:1 42:1 70:1 76:1 120:1 270:1 588:1 #
0.095066922858689020814360048916569 2:6 5:1 139:1 982:1 #
-0.095066922858689020814360048916569 5:2 15:1 39:2 54:2 162:2 163:2 #
0.095066922858689020814360048916569 2:1 4:2 5:1 6:2 9:1 10:1 12:1 15:2 29:1 34:1 54:1 77:1 165:1 207:1 268:1 591:1 715:1 825:1 917:1 14582:1 #
0.095066922858689020814360048916569 4:2 9:1 15:2 17:1 24:1 28:1 34:1 50:2 97:1 110:1 263:1 1480:1 #
-0.095066922858689020814360048916569 2:1 4:1 13:1 16:1 31:1 44:1 #
0.095066922858689020814360048916569 4:3 7:1 9:2 20:1 42:1 43:1 54:1 80:1 450:1 587:1 3381:1 #
0.095066922858689020814360048916569 2:1 4:1 11:1 23:1 41:1 144:1 175:1 218:1 #
-0.092424108434782326071399438660592 2:7 6:1 15:1 19:1 20:2 23:2 69:2 367:1 614:2 #
0.095066922858689020814360048916569 2:1 5:1 6:1 9:1 10:1 11:1 13:1 17:1 19:2 26:1 30:1 37:2 51:1 215:1 237:1 272:1 336:1 393:1 456:1 463:1 586:1 4492:1 #
-0.095066922858689020814360048916569 2:2 5:1 39:1 1570:1 2245:1 #
0.095066922858689020814360048916569 5:3 9:1 17:1 27:1 39:1 40:1 53:1 80:1 120:1 255:1 269:1 290:1 386:1 1668:1 2519:1 #
0.095066922858689020814360048916569 5:2 21:1 37:1 38:1 39:2 136:2 510:1 #
-0.095066922858689020814360048916569 2:1 4:1 5:1 9:2 80:1 180:1 #
-0.095066922858689020814360048916569 2:1 11:3 12:3 26:1 29:1 37:1 38:1 55:2 162:1 3528:1 #
0.095066922858689020814360048916569 2:1 4:1 5:1 45:1 81:1 104:1 109:1 110:1 #
-0.076198636814755554835798534440983 2:1 11:1 12:2 37:1 647:1 #
0.095066922858689020814360048916569 2:4 5:1 218:1 5749:1 #
-0.095066922858689020814360048916569 11:4 12:4 15:1 17:8 110:1 #
-0.072777157883029047757972307408636 2:7 9:2 13:1 24:1 35:1 78:1 230:1 728:2 877:3 #
-0.095066922858689020814360048916569 2:1 11:1 12:1 16:1 37:1 55:1 #
0.095066922858689020814360048916569 2:1 6:1 10:1 11:3 12:1 15:1 19:1 23:1 37:1 58:1 100:1 115:1 132:1 146:1 166:1 316:1 332:1 379:1 2409:1 #
-0.095066922858689020814360048916569 5:4 10:1 11:1 12:1 38:1 95:1 107:1 118:1 331:3 358:1 #
0.095066922858689020814360048916569 2:6 4:1 5:1 10:1 14:1 57:1 81:1 491:1 541:2 1051:1 #
0.095066922858689020814360048916569 2:7 12:1 16:1 18:1 28:1 55:1 61:1 111:1 115:1 140:1 274:1 513:1 1246:1 1411:1 8949:1 #
0.095066922858689020814360048916569 2:1 4:1 5:1 11:1 12:1 39:1 81:1 157:1 175:1 285:1 316:1 2799:1 #
0.095066922858689020814360048916569 2:1 9:2 16:1 23:2 29:1 30:1 37:1 69:1 216:1 222:1 2325:1 11088:1 #
0.095066922858689020814360048916569 5:1 9:3 12:1 14:1 30:3 31:1 #
-0.095066922858689020814360048916569 6:1 9:4 12:1 31:1 40:1 53:1 54:1 57:2 75:1 97:1 122:2 148:1 232:1 #
0.095066922858689020814360048916569 4:1 6:2 7:1 9:1 12:1 19:1 54:1 73:1 97:1 98:1 164:1 166:1 222:1 278:1 359:1 424:1 452:1 13972:1 #
0.095066922858689020814360048916569 4:1 7:1 9:1 11:1 23:1 43:1 50:1 91:1 371:1 1306:1 #
-0.095066922858689020814360048916569 6:2 9:2 15:1 19:1 24:1 54:1 107:1 541:1 1925:1 2091:1 #
-0.095066922858689020814360048916569 2:1 5:1 12:1 13:1 31:1 44:1 #
0.061198249914120372849879458954092 1:1 4:2 5:2 6:1 9:2 12:1 38:1 39:1 41:1 107:1 115:1 120:1 160:1 503:1 2882:1 #
0.095066922858689020814360048916569 2:1 5:1 6:3 9:2 11:1 12:1 41:1 50:1 57:1 74:1 115:2 120:1 178:1 831:1 1579:1 #
0.095066922858689020814360048916569 5:2 6:1 9:1 13:1 17:1 32:1 37:1 38:1 69:1 197:1 347:1 374:1 416:1 1877:1 #
-0.095066922858689020814360048916569 2:1 5:1 13:1 22:1 32:1 46:1 57:1 92:1 #
0.095066922858689020814360048916569 2:1 5:1 9:1 11:1 12:1 13:1 20:1 32:1 38:1 53:1 13234:1 #
0.095066922858689020814360048916569 5:1 6:1 9:1 17:1 41:1 70:1 74:1 6989:1 #
0.095066922858689020814360048916569 2:1 5:1 9:1 15:1 18:1 23:1 31:1 36:1 37:2 46:1 62:1 80:1 124:1 146:1 481:1 #
0.095066922858689020814360048916569 2:1 4:1 5:1 9:1 16:1 87:1 218:1 2254:1 #
0.095066922858689020814360048916569 5:2 10:1 13:1 14:1 32:1 37:1 110:1 149:1 416:1 2299:1 4804:1 #
0.095066922858689020814360048916569 9:3 11:2 27:1 54:3 214:1 6511:1 17895:1 #
0.095066922858689020814360048916569 4:3 6:2 7:1 9:3 13:1 22:1 29:2 66:2 78:2 156:1 242:1 1152:1 3099:1 #
0.090052005823483355362313318437373 2:1 5:1 25:1 30:1 61:1 118:1 428:1 18949:1 #
0.095066922858689020814360048916569 4:1 5:1 7:1 9:3 13:1 15:1 21:1 30:1 31:1 32:1 50:1 225:1 252:1 435:2 #
0.095066922858689020814360048916569 5:2 14:1 39:2 110:2 659:1 1981:1 #
0.095066922858689020814360048916569 4:1 7:1 12:1 37:1 42:1 498:1 #
-0.095066922858689020814360048916569 2:1 5:1 13:1 32:1 58:1 81:1 #
0.063124616065664274078272910628584 4:1 5:1 7:1 9:1 12:1 44:1 73:1 717:1 #
0.095066922858689020814360048916569 2:1 4:1 5:1 6:1 9:1 18:1 39:1 93:1 258:1 484:1 12115:1 #
0.095066922858689020814360048916569 2:1 9:1 11:1 12:1 78:1 104:1 261:1 408:1 #
-0.095066922858689020814360048916569 2:1 11:1 18:1 45:1 50:1 61:1 83:1 #
0.095066922858689020814360048916569 2:1 5:1 34:1 50:1 111:1 335:1 #
-0.095066922858689020814360048916569 2:1 5:1 13:1 32:1 43:1 46:1 51:1 92:1 #
-0.095066922858689020814360048916569 2:1 5:1 12:1 13:1 31:1 44:1 #
0.095066922858689020814360048916569 2:1 5:2 9:1 10:1 12:1 16:1 17:4 21:2 37:1 38:1 39:1 67:1 94:1 105:1 241:1 264:1 456:1 1658:1 4406:1 #
0.095066922858689020814360048916569 2:1 9:1 10:1 11:2 12:1 13:1 17:1 23:2 46:1 80:1 227:1 269:1 431:1 3246:1 3495:1 #
0.055377106642866061325669591042242 2:1 5:1 6:1 18:1 33:1 1442:1 5584:1 5960:1 12689:1 12818:1 21903:1 #
-0.095066922858689020814360048916569 2:1 4:1 5:1 13:1 44:1 165:1 #
0.095066922858689020814360048916569 4:1 7:1 12:1 13:1 23:1 32:1 81:1 85:1 #
-0.095066922858689020814360048916569 5:1 9:1 39:1 91:1 146:1 495:1 #
0.095066922858689020814360048916569 6:1 11:1 12:2 13:1 16:1 32:1 77:1 1689:1 6561:1 #
0.095066922858689020814360048916569 2:1 5:1 9:1 11:1 19:1 23:1 39:1 48:1 53:1 91:1 108:1 110:1 165:1 341:1 347:1 386:1 #
0.095066922858689020814360048916569 1:1 2:13 6:1 14:1 15:1 18:1 83:1 396:1 867:1 1484:1 2079:1 #
0.095066922858689020814360048916569 2:1 6:1 11:2 12:2 15:1 20:1 29:2 37:1 53:1 162:2 6476:1 #
-0.095066922858689020814360048916569 2:1 4:1 11:1 12:1 25:1 37:1 405:1 #
0.095066922858689020814360048916569 2:1 4:3 5:1 6:1 12:2 13:1 15:1 21:1 32:1 186:2 252:1 278:1 284:2 787:1 #
-0.095066922858689020814360048916569 2:1 11:1 18:1 45:1 50:1 61:1 83:1 #
0.095066922858689020814360048916569 12:2 13:1 14:1 17:1 21:2 22:1 24:2 31:1 32:1 38:1 46:2 216:1 #
0.095066922858689020814360048916569 2:2 4:2 5:1 9:1 15:1 17:1 23:1 35:1 37:1 42:2 57:1 88:1 93:1 143:2 187:1 545:1 1068:1 1072:1 1399:1 2188:1 2784:1 13061:1 #
0.095066922858689020814360048916569 2:2 4:2 5:1 6:1 10:1 11:1 13:1 19:1 22:1 38:1 42:1 44:1 45:1 46:1 59:1 68:1 82:1 349:1 890:1 1129:1 1311:1 5589:1 #
0.095066922858689020814360048916569 2:1 6:1 9:2 10:1 11:1 12:3 16:1 18:1 41:1 50:1 76:1 97:1 114:1 258:1 347:1 488:1 548:1 1569:1 3562:1 4102:1 #
0.095066922858689020814360048916569 5:2 6:1 7:1 34:1 255:1 1378:1 4039:1 #
-0.095066922858689020814360048916569 6:1 9:2 51:2 54:1 107:1 143:1 831:1 #
0.095066922858689020814360048916569 2:1 5:1 13:1 35:1 44:1 72:1 #
0.095066922858689020814360048916569 2:1 5:1 9:1 55:1 84:1 100:1 214:1 505:1 #
-0.095066922858689020814360048916569 2:1 5:4 15:4 39:1 63:3 110:1 846:3 1146:1 #
0.095066922858689020814360048916569 2:1 5:1 6:1 9:2 15:1 16:1 31:1 54:1 57:1 58:1 106:1 107:1 307:1 2843:1 #
0.095066922858689020814360048916569 2:1 5:1 10:1 35:1 149:1 650:1 6176:1 #
0.095066922858689020814360048916569 2:1 5:1 9:1 11:2 12:1 23:1 91:1 130:1 159:1 271:1 468:1 #
-0.095066922858689020814360048916569 2:1 5:1 13:1 16:1 31:1 44:1 #
-0.095066922858689020814360048916569 4:1 7:1 12:1 31:1 79:1 85:1 #
-0.095066922858689020814360048916569 2:1 5:1 12:1 13:1 32:1 55:1 246:1 #
0.095066922858689020814360048916569 2:1 5:1 21:1 22:1 158:1 210:1 694:1 1804:1 #
0.029852813729125141084530525859009 2:1 4:1 5:3 6:1 13:1 17:1 18:1 19:1 20:1 33:1 38:1 41:2 218:1 280:1 282:1 317:1 1179:1 2306:1 3022:1 5803:1 #
-0.095066922858689020814360048916569 2:1 5:1 13:1 16:1 31:1 44:1 #
-0.095066922858689020814360048916569 2:1 5:1 12:1 13:1 31:1 44:1 #
0.095066922858689020814360048916569 2:1 5:2 9:1 12:1 13:1 15:1 16:1 21:1 39:1 44:1 95:1 160:1 264:1 3715:1 #
0.0026672757267550322238247595407756 7:1 9:1 11:2 12:2 13:1 153:1 167:1 2018:1 4890:1 6028:1 #
-0.095066922858689020814360048916569 2:1 4:1 5:1 42:1 64:1 81:1 #
0.095066922858689020814360048916569 4:2 7:1 10:1 37:1 42:1 43:1 23421:1 #
0.081706478106971319741447246087773 10:1 11:1 12:1 13:1 14:1 16:1 32:1 89:1 237:1 3889:1 #
0.012003385041027112359324213741729 9:1 10:1 11:1 12:1 14:1 17:1 33:1 50:1 59:1 120:1 203:1 462:1 #
-0.095066922858689020814360048916569 2:1 5:1 13:1 16:1 31:1 44:1 #
-0.095066922858689020814360048916569 2:1 9:1 24:1 25:1 29:1 42:1 91:1 203:1 379:1 #
-0.095066922858689020814360048916569 4:1 7:1 9:1 20:1 37:1 42:1 91:1 93:1 #
-0.095066922858689020814360048916569 2:1 5:1 29:1 34:1 64:1 97:1 #
0.095066922858689020814360048916569 2:1 10:1 11:1 12:1 1569:1 4540:1 #
0.095066922858689020814360048916569 2:1 4:1 5:1 39:1 162:1 302:1 #
-0.095066922858689020814360048916569 2:1 5:1 12:1 13:1 31:1 44:1 #
0.095066922858689020814360048916569 2:1 5:2 10:2 38:1 44:1 62:1 66:1 78:1 98:1 120:1 343:1 614:1 789:1 #
-0.095066922858689020814360048916569 2:1 4:1 5:1 39:1 42:1 64:1 136:1 #
0.095066922858689020814360048916569 2:1 5:1 9:1 12:1 18:1 50:1 67:1 267:1 1031:1 #
0.095066922858689020814360048916569 2:1 6:4 15:1 18:1 19:1 185:1 201:1 308:1 1194:1 1228:1 #
-0.095066922858689020814360048916569 2:1 10:1 11:1 16:1 18:1 191:1 275:1 #
0.021987315819606702282928978320342 2:1 4:1 5:1 6:1 18:1 25:1 153:1 214:1 383:1 568:1 785:1 1060:1 4678:1 8996:1 11892:1 17213:1 22112:1 #
0.035526227383142872096044584395713 2:2 4:1 5:1 9:3 10:1 12:1 17:1 23:1 29:1 30:1 39:1 63:1 84:1 91:1 95:1 108:1 370:1 525:1 713:1 1182:1 2635:1 3061:1 19424:1 #
0.095066922858689020814360048916569 2:1 5:1 10:1 18:1 271:1 3150:1 4244:1 4299:1 #
0.095066922858689020814360048916569 2:1 4:2 15:2 18:1 20:1 42:2 45:1 50:1 59:1 61:1 75:1 162:2 #
-0.095066922858689020814360048916569 4:1 5:1 7:1 21:1 46:1 145:1 #
-0.095066922858689020814360048916569 2:1 4:1 5:1 37:1 69:1 460:1 #
-0.095066922858689020814360048916569 2:1 4:1 5:1 656:1 3914:1 6440:1 #
0.095066922858689020814360048916569 2:1 5:2 9:2 10:2 11:1 12:1 17:1 21:1 29:1 54:1 181:1 214:1 267:1 2106:1 7358:1 14632:1 #
0.095066922858689020814360048916569 2:1 6:4 12:1 16:1 18:1 22:1 41:1 588:1 753:1 1063:1 2023:1 6520:1 #
0.095066922858689020814360048916569 4:1 6:3 7:1 9:1 18:1 43:1 91:1 108:1 353:1 390:1 537:1 3953:1 4712:1 4961:1 #
-0.095066922858689020814360048916569 2:1 6:2 9:3 15:1 19:1 29:1 30:1 51:1 88:2 182:1 595:1 774:1 1527:1 4369:1 #
0.0078447091263992366205748396623676 2:1 4:1 15:1 17:2 18:1 34:1 50:1 217:1 699:1 1446:1 1636:1 2293:1 2521:1 3907:1 5818:1 #
0.095066922858689020814360048916569 5:3 7:1 10:1 11:1 13:1 23:1 32:1 38:1 46:2 48:1 55:1 75:1 229:1 322:1 #
0.095066922858689020814360048916569 2:1 5:2 10:2 15:1 37:1 39:2 413:1 1061:1 8014:1 #
0.095066922858689020814360048916569 2:1 4:1 6:1 36:1 42:1 130:1 881:1 2178:1 #
-0.095066922858689020814360048916569 5:1 9:1 13:1 21:1 32:1 46:1 95:1 #
0.095066922858689020814360048916569 2:1 4:1 10:1 25:1 7305:1 21660:1 #
0.095066922858689020814360048916569 2:1 5:1 6:2 9:2 18:2 39:1 90:1 130:1 809:1 1974:1 2044:1 13654:1 17657:1 #
0.095066922858689020814360048916569 2:1 4:1 9:1 11:1 12:1 63:1 99:1 145:1 #
-0.095066922858689020814360048916569 2:1 4:1 5:1 6:1 19:1 34:1 75:1 349:1 #
0.0032782369357029507959955250129269 2:1 5:2 9:1 13:2 19:1 30:1 32:2 87:1 146:1 148:2 237:1 314:1 753:1 #
0.095066922858689020814360048916569 2:1 5:2 11:1 13:2 15:1 21:1 32:2 46:1 124:1 252:1 #
-0.095066922858689020814360048916569 2:1 5:2 13:2 22:1 23:1 32:2 38:1 46:2 92:1 #
-0.031413317259467832265329434449086 2:1 5:4 15:3 39:4 5237:4 #
-0.094024354072506199919700975442538 10:1 11:1 12:1 14:1 37:1 244:1 574:1 #
0.095066922858689020814360048916569 2:1 6:1 57:1 122:1 776:1 1704:1 #
0.095066922858689020814360048916569 4:2 5:1 7:1 13:1 32:1 46:1 81:1 #
0.095066922858689020814360048916569 4:2 7:1 37:1 42:1 43:1 1674:1 7716:1 #
0.095066922858689020814360048916569 2:1 5:3 6:1 13:1 15:1 19:1 32:1 41:1 73:1 222:1 235:1 1924:1 2175:1 #
0.095066922858689020814360048916569 2:1 4:2 9:2 17:2 20:1 42:2 91:2 93:1 108:1 386:1 #
0.095066922858689020814360048916569 2:1 4:1 9:1 15:1 21:1 22:1 42:2 46:1 51:1 362:1 596:1 8328:1 #
-0.095066922858689020814360048916569 4:1 5:1 7:1 21:1 46:1 145:1 #
0.095066922858689020814360048916569 2:1 5:2 9:2 30:2 54:2 #
0.095066922858689020814360048916569 5:1 9:3 17:2 30:1 39:1 91:1 #
-0.095066922858689020814360048916569 2:1 5:2 9:1 11:1 12:2 13:1 16:1 31:1 32:1 46:1 60:1 67:1 73:1 317:1 #
0.095066922858689020814360048916569 4:1 5:1 6:2 9:2 10:2 15:1 18:1 25:1 33:1 51:1 66:1 78:1 171:1 275:1 299:1 452:1 2454:1 2878:1 3660:1 4584:1 #
0.095066922858689020814360048916569 5:2 9:2 13:1 16:1 21:1 32:1 39:1 46:1 60:1 95:1 160:1 #
-0.095066922858689020814360048916569 2:1 5:1 11:1 16:1 21:1 39:1 68:1 333:1 #
0.095066922858689020814360048916569 2:1 6:1 11:1 12:1 19:1 86:1 397:1 444:1 1185:1 4195:1 #
0.095066922858689020814360048916569 2:1 5:1 6:1 39:1 94:1 1006:1 2743:1 #
-0.095066922858689020814360048916569 2:1 10:1 11:1 12:1 37:1 1083:1 #
0.095066922858689020814360048916569 2:1 5:1 27:1 34:1 54:1 206:1 256:1 #
-0.095066922858689020814360048916569 2:1 4:1 10:1 42:1 94:1 669:1 #
0.024385706501873532364710328579349 4:1 7:1 21:1 31:1 39:1 81:1 517:1 713:1 #
0.095066922858689020814360048916569 2:1 6:2 11:2 15:1 169:1 268:1 385:1 2594:1 #
-0.043755609512467985577899298732518 4:1 7:1 9:1 10:1 11:1 12:1 21:1 29:1 46:1 55:1 1608:1 #
-0.095066922858689020814360048916569 4:1 6:1 7:1 14:1 21:1 43:1 210:1 787:1 #
-0.026827599202814349232948387680153 2:1 4:1 5:2 9:1 10:1 16:1 17:2 37:1 46:1 80:1 149:1 745:1 #
-0.095066922858689020814360048916569 2:1 5:1 9:1 13:1 21:1 32:1 46:1 48:1 93:1 #
-0.095066922858689020814360048916569 2:1 5:1 39:1 160:1 179:2 726:1 2469:1 2683:1 3273:2 6602:1 7215:1 #
0.095066922858689020814360048916569 2:1 10:1 11:1 23:1 24:1 26:1 29:1 30:1 34:1 37:1 42:1 51:1 55:2 108:1 136:1 143:1 162:1 322:1 914:1 1445:1 4971:1 7318:1 #
0.095066922858689020814360048916569 2:2 11:2 12:2 37:1 159:1 9409:1 19719:1 #
0.095066922858689020814360048916569 2:1 4:1 9:1 11:3 12:2 41:1 60:1 67:1 76:1 838:1 10811:1 18459:1 22252:1 #
0.095066922858689020814360048916569 2:1 4:1 5:1 13:1 41:1 95:1 112:1 1631:1 #
-0.095066922858689020814360048916569 2:1 6:2 16:1 19:1 30:1 43:1 51:1 120:1 194:1 272:1 979:1 4608:1 #
-0.095066922858689020814360048916569 2:1 5:1 11:1 12:2 13:1 16:1 32:1 55:1 67:1 246:1 #
0.035019559532358510156591080431099 2:1 5:1 6:1 11:1 12:1 16:1 38:1 46:1 55:1 484:1 852:1 6139:1 6654:1 #
0.095066922858689020814360048916569 2:1 9:1 12:2 16:1 23:1 25:1 37:1 41:1 196:1 318:1 323:1 467:1 975:1 1410:1 #
0.095066922858689020814360048916569 2:1 5:2 6:1 9:1 11:1 12:2 15:1 27:1 39:1 55:1 91:1 115:1 192:1 314:1 #
0.095066922858689020814360048916569 2:1 5:1 9:1 11:1 12:1 37:1 55:1 78:1 1455:1 #
-0.095066922858689020814360048916569 2:1 6:2 9:1 10:1 18:1 23:2 41:1 62:1 90:1 91:1 102:1 143:1 5930:1 9144:1 #
0.095066922858689020814360048916569 2:1 4:2 10:2 37:1 42:2 43:1 64:1 120:1 144:2 640:1 897:1 5063:1 8911:1 #
0.095066922858689020814360048916569 2:1 4:2 6:1 16:1 20:1 38:1 40:1 42:2 44:1 70:1 120:1 165:1 346:1 557:1 901:1 14836:1 #
-0.095066922858689020814360048916569 2:1 10:1 11:1 57:1 77:1 207:1 #
-0.095066922858689020814360048916569 4:1 5:1 7:1 21:1 46:1 145:1 #
-0.095066922858689020814360048916569 2:1 5:1 11:1 12:1 37:1 39:1 55:1 108:5 4838:6 #
0.095066922858689020814360048916569 2:1 5:1 6:3 12:1 18:1 21:1 22:2 31:1 37:1 38:1 408:1 888:1 4746:1 #
0.065847104060001868108820133329573 2:1 5:2 6:1 9:2 29:1 41:1 68:1 89:1 143:1 156:1 270:1 277:1 335:1 #
0.095066922858689020814360048916569 2:1 5:2 9:2 12:1 31:1 44:1 64:1 91:1 119:1 149:1 205:1 #
0.095066922858689020814360048916569 2:1 4:1 5:1 34:1 83:1 87:1 295:1 3996:1 5557:1 9516:1 #
0.095066922858689020814360048916569 2:1 4:1 5:1 6:1 11:1 12:1 15:1 19:1 21:1 37:1 39:1 46:1 705:1 2302:1 12497:1 #
-0.095066922858689020814360048916569 2:1 10:1 23:1 29:1 34:1 1054:1 #
0.095066922858689020814360048916569 2:1 5:2 9:2 12:2 13:1 15:1 29:1 32:1 38:1 46:1 48:1 50:1 84:1 413:1 591:1 #
0.095066922858689020814360048916569 2:1 5:2 6:1 9:1 13:1 15:1 18:1 19:1 31:1 32:1 37:1 152:1 163:1 489:1 582:1 678:1 847:1 1452:1 3859:1 6599:1 14097:1 24032:1 #
-0.095066922858689020814360048916569 2:1 9:1 20:1 57:2 143:1 267:1 460:1 #
-0.095066922858689020814360048916569 2:1 4:1 5:1 34:1 75:1 268:1 #
0.095066922858689020814360048916569 2:1 4:1 5:1 13:1 21:1 32:1 42:1 46:1 68:1 333:1 #
-0.095066922858689020814360048916569 2:1 5:1 9:1 54:1 66:1 78:1 #
-0.095066922858689020814360048916569 2:1 10:1 11:1 12:1 105:1 156:1 921:1 #
0.095066922858689020814360048916569 2:1 9:2 12:2 13:1 20:1 23:2 38:1 55:1 68:2 180:1 227:1 2295:1 #
-0.095066922858689020814360048916569 2:1 5:1 6:1 9:1 34:1 88:1 97:1 406:1 593:1 #
-0.095066922858689020814360048916569 2:1 5:1 12:1 13:1 32:1 55:1 #
0.094265292306938808231109305779682 2:1 6:1 10:1 11:1 19:2 776:1 1300:1 2667:1 8232:1 #
0.095066922858689020814360048916569 6:1 12:1 15:1 18:1 21:1 23:1 41:2 98:1 100:1 104:1 107:1 113:1 379:1 1511:1 2021:1 24171:1 #
0.095066922858689020814360048916569 2:1 6:2 12:1 19:1 23:1 38:1 41:1 74:1 87:1 278:1 367:1 580:1 774:1 10202:1 #
0.095066922858689020814360048916569 2:1 5:2 9:1 13:2 15:1 17:1 20:1 22:1 26:1 32:2 46:1 68:1 80:2 86:1 375:1 1604:1 19800:1 #
0.095066922858689020814360048916569 2:1 6:1 11:1 12:1 19:1 1028:1 #
-0.095066922858689020814360048916569 2:1 5:1 12:1 13:1 32:1 55:1 #
-0.095066922858689020814360048916569 2:1 11:1 18:1 45:1 50:1 61:1 83:1 #
-0.095066922858689020814360048916569 2:1 5:1 13:1 16:1 31:1 44:1 #
0.095066922858689020814360048916569 2:1 5:1 9:2 12:1 13:1 30:1 32:1 46:1 75:1 #
0.095066922858689020814360048916569 2:1 4:1 5:1 9:1 12:1 41:1 67:1 107:1 119:1 136:1 #
-0.095066922858689020814360048916569 4:1 6:1 7:1 11:1 21:1 40:1 65:12 226:1 #
-0.095066922858689020814360048916569 2:1 4:1 5:1 13:1 21:1 32:1 85:1 252:1 #
-0.071641127362671641609637163128355 6:4 10:1 18:5 23:1 41:1 94:1 172:1 443:1 849:3 #
0.095066922858689020814360048916569 2:1 4:1 12:1 42:1 46:1 51:1 110:1 154:1 330:1 #
0.095066922858689020814360048916569 2:1 4:1 5:1 11:1 12:1 13:1 16:1 32:1 37:1 139:1 #
-0.095066922858689020814360048916569 2:1 4:1 5:1 25:1 36:1 66:1 96:1 130:1 318:1 #
0.095066922858689020814360048916569 4:1 5:1 7:1 11:1 12:1 16:1 19:1 39:1 40:1 139:1 4794:1 #
-0.095066922858689020814360048916569 2:1 4:1 5:1 34:1 75:1 268:1 #
-0.095066922858689020814360048916569 2:1 9:1 24:1 42:1 48:1 50:1 91:1 #
-0.095066922858689020814360048916569 2:1 5:1 9:1 12:1 13:1 32:1 68:1 80:1 180:1 #
0.095066922858689020814360048916569 2:1 4:1 5:1 7:1 25:1 31:1 44:1 128:1 #
0.095066922858689020814360048916569 2:1 4:1 9:1 15:1 21:1 22:1 42:2 46:1 51:1 362:1 596:1 8328:1 #
-0.095066922858689020814360048916569 2:1 35:18 #
0.045218340861246680839613532043586 5:1 6:1 12:3 13:1 14:1 15:1 19:1 20:1 21:1 22:2 32:1 38:1 46:1 47:1 78:2 627:1 1409:1 1784:1 6525:1 #
0.095066922858689020814360048916569 5:2 9:2 11:1 14:1 15:1 21:1 33:1 46:2 56:1 64:1 80:2 91:1 #
0.095066922858689020814360048916569 2:1 13:1 16:1 24:2 32:1 46:4 51:2 #
-0.095066922858689020814360048916569 2:1 9:1 12:1 13:1 29:1 31:1 51:1 135:1 595:1 #
-0.041748629993022208506392445315214 307:18 1520:1 #
-0.095066922858689020814360048916569 72:19 #
-0.095066922858689020814360048916569 2:1 11:1 12:1 16:1 42:1 51:1 67:1 105:11 258:1 #
0.095066922858689020814360048916569 2:1 10:1 11:1 83:1 90:1 495:1 #
0.095066922858689020814360048916569 2:1 6:1 9:1 11:2 18:1 21:1 50:1 55:1 57:1 67:1 74:1 88:1 162:1 243:1 404:1 #
0.040716214683002842356085437813817 2:1 6:1 10:1 55:1 420:1 1979:1 5910:1 10471:1 #
-0.095066922858689020814360048916569 2:1 5:2 31:1 60:1 66:1 74:1 76:2 274:1 #
-0.095066922858689020814360048916569 147:6 522:6 #
-0.095066922858689020814360048916569 2:1 5:2 15:1 25:2 48:2 203:2 #
-0.095066922858689020814360048916569 5:1 15:1 118:1 146:2 314:2 #
-0.095066922858689020814360048916569 2:1 11:1 27:2 659:3 3183:3 #
0.095066922858689020814360048916569 2:1 5:3 9:1 12:1 13:1 32:1 38:1 46:2 55:1 68:1 81:1 137:1 #
0.095066922858689020814360048916569 5:5 16:1 26:1 107:2 108:2 247:1 274:1 331:3 #
-0.095066922858689020814360048916569 5:1 9:1 12:1 13:1 27:4 29:1 32:1 80:1 108:3 232:4 #
-0.095066922858689020814360048916569 2:1 5:1 9:1 13:1 32:1 80:1 #
-0.095066922858689020814360048916569 2:1 11:1 18:1 45:1 50:1 61:1 83:1 #
0.095066922858689020814360048916569 2:3 6:1 10:1 11:1 12:1 15:2 18:1 19:1 28:1 41:1 56:1 57:2 105:1 203:1 767:1 1570:1 2570:1 3060:1 24148:1 #
0.095066922858689020814360048916569 11:1 13:1 14:1 57:1 230:1 273:1 375:1 #
-0.095066922858689020814360048916569 2:1 10:1 12:1 41:1 77:1 156:1 #
-0.095066922858689020814360048916569 2:1 11:4 12:1 15:2 16:1 57:3 67:1 1129:3 #
0.095066922858689020814360048916569 2:1 5:1 9:1 23:1 26:1 170:1 234:1 237:1 373:1 #
-0.095066922858689020814360048916569 2:1 10:1 11:1 57:1 77:1 207:1 #
0.095066922858689020814360048916569 2:1 5:1 13:1 32:1 38:1 55:1 132:1 160:1 246:1 253:1 333:1 #
0.095066922858689020814360048916569 5:2 13:2 32:2 386:2 440:2 #
-0.095066922858689020814360048916569 2:1 29:1 38:1 41:1 47:2 100:1 101:2 1098:1 1210:1 1822:2 1952:1 6917:1 #
-0.095066922858689020814360048916569 2:1 4:1 5:1 12:1 13:1 29:1 53:1 81:1 101:1 112:1 144:1 #
-0.095066922858689020814360048916569 2:1 6:2 33:1 50:1 56:2 116:1 881:1 1784:1 #
-0.095066922858689020814360048916569 2:1 6:1 15:7 950:1 1591:8 6846:1 #
0.054329166255485172865036247458193 2:1 5:1 33:1 39:1 45:1 55:1 1399:1 6255:2 #
-0.095066922858689020814360048916569 4:2 5:1 9:1 20:1 21:1 80:2 93:1 #
-0.095066922858689020814360048916569 4:1 5:1 9:1 15:1 17:3 20:1 40:1 80:1 168:1 194:1 290:2 4135:1 #
0.095066922858689020814360048916569 2:1 5:2 6:3 15:1 17:2 25:1 30:3 31:3 37:3 98:1 517:1 5272:1 9422:1 20157:1 #
0.095066922858689020814360048916569 5:1 6:1 7:1 9:1 31:1 50:1 64:1 70:1 73:1 #
0.095066922858689020814360048916569 2:1 4:2 6:2 9:1 42:1 91:1 92:1 120:1 214:1 2610:1 13207:1 #
-0.095066922858689020814360048916569 2:1 6:2 11:2 17:2 43:1 177:1 685:1 950:1 961:1 6727:1 14322:1 #
-0.095066922858689020814360048916569 2:1 6:3 19:1 23:1 41:1 70:1 86:1 322:1 326:1 515:1 #
-0.095066922858689020814360048916569 2:1 6:4 15:1 18:1 19:1 185:1 201:1 308:1 1194:1 1228:1 #
0.095066922858689020814360048916569 2:1 5:3 9:2 13:1 15:1 29:1 32:1 38:1 39:1 58:1 67:1 80:1 81:1 90:1 91:1 93:1 142:1 306:1 1321:1 2336:1 10592:1 #
0.095066922858689020814360048916569 2:1 4:1 5:2 9:2 13:1 25:1 26:1 29:1 32:1 36:1 39:1 46:1 67:1 73:1 91:1 97:1 194:1 353:1 595:1 #
-0.095066922858689020814360048916569 2:1 4:2 9:3 21:1 30:2 95:1 124:1 353:1 821:1 #
-0.095066922858689020814360048916569 2:1 5:1 6:1 9:1 30:1 35:1 798:3 #
-0.095066922858689020814360048916569 2:1 5:1 12:1 13:1 44:1 237:1 #
-0.095066922858689020814360048916569 2:1 9:3 20:1 51:1 73:3 88:3 1021:4 #
-0.095066922858689020814360048916569 2:1 5:1 9:1 13:1 32:1 46:1 73:1 1985:1 #
0.095066922858689020814360048916569 4:2 7:1 37:1 42:1 43:1 466:1 #
-0.095066922858689020814360048916569 2:1 5:1 6:4 17:2 18:2 19:1 30:1 201:1 274:1 415:2 692:1 1721:1 2234:1 #
-0.095066922858689020814360048916569 2:1 6:4 17:2 18:2 38:1 43:1 153:2 463:2 #
0.095066922858689020814360048916569 2:1 4:1 5:1 9:1 37:1 39:1 83:1 88:1 91:1 302:1 #
-0.095066922858689020814360048916569 2:1 5:1 9:1 16:1 39:1 160:1 218:1 #
-0.040226144944760525157256836337183 169:1 306:11 #
-0.095066922858689020814360048916569 2:1 4:1 5:1 7:1 21:1 39:1 46:1 137:11 7119:1 #
0.095066922858689020814360048916569 2:1 4:2 9:1 31:1 42:1 44:1 627:1 751:1 #
-0.095066922858689020814360048916569 2:1 6:1 9:1 15:2 19:1 42:1 51:1 91:1 541:4 1067:1 #
-0.095066922858689020814360048916569 2:1 6:3 9:1 15:2 22:1 91:1 1478:4 2866:2 #
-0.095066922858689020814360048916569 6:2 9:1 10:1 12:1 18:1 115:1 166:1 408:1 444:1 731:1 #
0.095066922858689020814360048916569 2:1 4:2 13:1 21:1 32:1 42:1 46:1 68:1 333:1 #
-0.095066922858689020814360048916569 2:1 6:1 10:1 18:1 22:1 23:1 94:1 272:1 #
-0.095066922858689020814360048916569 4:2 13:1 15:1 21:1 32:1 42:1 46:1 157:1 2046:1 #
-0.095066922858689020814360048916569 2:1 5:2 13:2 32:2 38:1 46:1 74:1 222:1 #
0.095066922858689020814360048916569 2:1 5:1 6:2 9:1 12:1 19:1 39:1 162:1 889:1 1241:1 1527:1 14311:1 #
0.095066922858689020814360048916569 2:1 5:1 9:1 80:1 82:1 702:1 771:1 #
-0.095066922858689020814360048916569 2:3 6:3 11:1 12:1 33:1 40:1 70:1 76:1 82:1 270:1 367:1 4818:1 #
-0.095066922858689020814360048916569 2:1 6:4 9:2 22:1 912:2 6518:2 #
-0.095066922858689020814360048916569 2:1 6:4 9:1 18:1 19:1 51:1 109:1 120:1 235:1 272:1 400:1 427:1 908:1 1734:1 9899:1 #
0.095066922858689020814360048916569 2:1 5:1 11:1 16:1 237:1 18077:1 #
0.095066922858689020814360048916569 2:1 5:2 17:1 21:1 37:1 46:1 51:1 69:2 97:1 102:1 110:1 149:1 158:1 445:1 #
0.095066922858689020814360048916569 2:1 10:1 13:1 32:1 119:1 693:1 #
-0.095066922858689020814360048916569 2:1 5:3 15:3 18:1 39:3 282:1 552:4 585:1 #
0.095066922858689020814360048916569 2:1 13:1 32:1 58:1 102:1 12978:1 #
-0.095066922858689020814360048916569 2:1 4:1 6:2 7:1 9:1 18:1 19:1 29:1 55:1 73:1 84:1 138:1 313:1 1216:1 #
-0.095066922858689020814360048916569 2:1 6:2 9:1 11:1 12:1 16:1 19:1 29:1 120:1 122:1 156:1 247:1 752:1 #
-0.095066922858689020814360048916569 10:1 19:1 27:1 55:1 721:2 #
-0.044921885264462731168766396194769 2:1 6:1 19:1 51:1 96:1 107:1 1793:13 #
0.095066922858689020814360048916569 2:1 4:1 5:1 13:1 21:1 32:1 42:1 46:1 68:1 333:1 #
-0.095066922858689020814360048916569 4:1 5:1 7:1 21:1 46:1 145:1 #
-0.095066922858689020814360048916569 4:1 5:2 7:1 9:1 13:1 15:1 17:2 21:2 32:1 39:1 46:2 68:1 95:1 333:1 #
-0.095066922858689020814360048916569 2:1 4:3 15:1 17:2 20:1 21:1 29:1 31:2 37:1 53:1 69:1 93:1 110:1 3294:1 #
0.095066922858689020814360048916569 2:1 6:2 9:1 10:1 11:1 12:1 15:1 19:1 29:1 55:1 57:2 272:1 414:1 506:1 1634:1 3820:1 3873:1 #
0.095066922858689020814360048916569 2:1 6:2 11:1 12:1 19:1 37:1 67:1 270:1 276:1 874:1 1285:1 #
0.095066922858689020814360048916569 2:1 5:1 6:1 11:2 12:1 13:1 19:1 32:1 37:1 66:1 98:1 163:1 164:1 342:1 1612:1 7433:1 #
0.095066922858689020814360048916569 2:1 24:1 66:1 78:1 117:1 1054:1 #
-0.095066922858689020814360048916569 2:1 5:1 6:2 11:1 12:1 16:1 19:1 66:1 98:1 164:2 214:1 271:1 834:1 #
-0.095066922858689020814360048916569 2:1 6:2 9:1 11:2 12:3 29:1 76:1 87:1 89:1 97:1 234:1 270:1 360:1 2839:1 3934:1 #
-0.052459543797483729199448987401411 2:2 4:4 15:1 16:1 57:2 58:2 74:1 132:2 706:4 #
-0.095066922858689020814360048916569 4:1 9:2 17:2 20:1 21:1 37:1 38:1 42:1 91:1 138:1 199:1 237:1 264:1 517:4 #
-0.095066922858689020814360048916569 2:1 9:2 15:2 17:1 24:2 62:1 102:1 110:2 180:1 184:1 426:1 607:2 #
-0.095066922858689020814360048916569 4:1 7:1 9:2 12:1 15:1 24:2 25:1 30:1 31:1 34:1 42:1 68:1 91:1 128:1 180:1 254:1 412:1 #
-0.090860181590061178669159858145576 2:1 5:1 11:3 12:3 13:1 16:1 32:1 37:1 38:1 46:1 53:1 67:1 735:2 #
-0.095066922858689020814360048916569 2:1 5:1 11:2 12:2 13:1 16:1 32:1 46:1 53:1 67:1 77:1 108:1 261:1 #
-0.095066922858689020814360048916569 2:1 5:2 13:1 32:1 46:1 86:1 149:1 157:1 #
0.095066922858689020814360048916569 2:1 4:2 6:1 9:1 15:1 17:1 20:1 46:1 91:1 96:1 270:1 15079:1 #
-0.095066922858689020814360048916569 2:1 6:1 9:1 11:1 16:1 18:1 50:1 88:1 115:1 120:1 1031:1 #
-0.095066922858689020814360048916569 2:1 5:1 12:1 13:1 31:1 44:1 #
-0.095066922858689020814360048916569 2:1 4:2 5:2 9:2 20:1 68:1 80:2 88:1 93:2 #
-0.095066922858689020814360048916569 2:1 11:1 18:1 45:1 50:1 61:1 83:1 #
0.095066922858689020814360048916569 2:1 5:1 10:1 12:1 13:1 16:1 17:1 32:1 41:1 46:1 55:1 163:1 295:1 414:1 1101:1 1523:1 #
-0.095066922858689020814360048916569 2:1 11:2 12:2 15:2 17:1 56:1 150:2 330:2 #
-0.095066922858689020814360048916569 4:1 5:1 6:2 19:1 22:1 26:1 66:1 98:1 199:1 274:1 639:1 #
-0.095066922858689020814360048916569 2:1 4:1 5:2 13:2 16:1 17:2 20:1 26:1 31:1 42:1 44:2 158:1 237:1 587:1 #
-0.095066922858689020814360048916569 2:1 4:1 6:2 13:1 44:1 75:1 87:1 580:1 596:1 #
-0.095066922858689020814360048916569 4:2 10:1 11:1 13:1 33:2 44:1 86:1 94:1 3248:1 4957:1 #
-0.095066922858689020814360048916569 4:1 5:1 7:1 21:1 46:1 145:1 #
0.095066922858689020814360048916569 2:1 5:1 10:1 13:1 30:1 32:1 382:1 487:1 #
-0.095066922858689020814360048916569 2:1 4:1 5:1 39:1 68:1 333:1 #
0.095066922858689020814360048916569 2:1 4:2 13:1 21:1 32:1 42:1 46:1 68:1 94:1 190:1 333:1 #
-0.085243740996171643575785026314406 9:2 11:1 23:1 54:1 78:1 1058:2 1241:3 #
-0.095066922858689020814360048916569 9:1 10:2 15:3 40:1 310:1 649:1 854:1 1162:1 1456:1 3157:1 6512:2 #
-0.095066922858689020814360048916569 2:1 9:2 15:1 24:1 30:1 42:1 91:1 117:2 142:2 475:2 1573:2 #
-0.095066922858689020814360048916569 2:1 10:1 11:1 12:1 67:1 721:1 #
0.095066922858689020814360048916569 2:1 6:1 11:2 12:1 15:1 150:1 547:1 854:1 1631:1 #
-0.095066922858689020814360048916569 2:1 5:1 9:1 13:1 21:1 32:1 46:1 48:1 93:1 #
-0.095066922858689020814360048916569 2:1 10:2 15:1 24:2 78:2 3786:2 #
-0.095066922858689020814360048916569 2:1 4:2 5:1 13:2 16:2 17:2 31:1 37:1 38:1 39:1 44:2 498:1 #
-0.016040841796781876715805026378803 2:1 4:1 5:1 9:1 80:1 348:1 5519:3 #
0.095066922858689020814360048916569 2:1 4:1 6:1 9:1 11:1 12:1 38:1 59:1 64:1 65:1 75:1 4397:1 17776:1 #
0.095066922858689020814360048916569 2:1 4:1 5:2 15:1 20:1 24:1 37:1 42:1 55:2 88:1 145:1 #
0.070635709092432483191537073707877 2:1 5:1 10:1 19:1 24:1 63:1 202:1 272:1 276:1 3285:1 5591:1 #
-0.095066922858689020814360048916569 2:1 5:1 6:1 9:3 15:1 30:1 54:1 88:1 591:1 2738:1 #
0.095066922858689020814360048916569 2:1 4:2 5:2 9:1 10:1 11:1 15:2 17:2 19:1 46:1 57:1 66:1 67:1 105:1 207:1 229:1 267:1 274:1 1286:1 1731:1 10634:1 17922:1 #
0.095066922858689020814360048916569 2:1 5:1 12:2 13:1 44:1 110:1 150:1 165:1 1640:1 #
-0.095066922858689020814360048916569 2:1 4:1 5:1 13:1 32:1 526:1 #
-0.095066922858689020814360048916569 4:2 5:1 12:2 15:1 20:1 25:2 66:2 247:2 #
-0.095066922858689020814360048916569 2:3 4:1 5:1 6:1 34:1 62:1 75:1 999:1 #
0.095066922858689020814360048916569 2:1 5:1 6:2 9:1 10:1 11:1 39:1 91:1 2307:1 4933:1 12882:1 #
0.095066922858689020814360048916569 2:1 5:1 6:1 9:1 11:1 15:1 16:1 39:1 54:1 58:1 111:1 162:2 203:1 2738:1 7762:1 #
-0.095066922858689020814360048916569 6:3 18:1 55:1 108:1 152:1 169:1 315:2 #
0.095066922858689020814360048916569 7:1 12:1 22:1 58:1 79:1 145:1 #
-0.095066922858689020814360048916569 2:1 6:4 17:2 18:2 22:2 286:1 792:4 1027:1 #
-0.095066922858689020814360048916569 6:3 18:2 281:1 620:2 #
-0.095066922858689020814360048916569 2:1 5:1 10:1 37:1 149:1 2158:1 #
-0.095066922858689020814360048916569 2:1 4:2 5:1 9:2 20:1 143:1 178:1 180:1 267:1 #
-0.095066922858689020814360048916569 2:1 4:2 7:1 9:1 13:1 29:1 36:1 42:1 56:1 64:1 91:1 363:1 #
0.095066922858689020814360048916569 2:1 4:1 5:2 9:2 11:1 16:1 19:1 27:1 149:1 185:1 640:1 648:1 1659:1 1951:1 4120:1 #
-0.095066922858689020814360048916569 4:1 5:1 7:1 21:1 46:1 145:1 #
-0.095066922858689020814360048916569 2:1 10:1 41:1 57:1 241:1 2684:1 #
-0.095066922858689020814360048916569 2:1 5:2 6:1 9:2 41:1 74:2 90:1 91:1 187:1 1100:1 #
-0.095066922858689020814360048916569 10:1 11:1 12:1 14:1 67:1 156:1 713:3 #
-0.095066922858689020814360048916569 2:1 12:1 15:1 27:2 41:1 163:2 #
-0.062974571511718605010266003318975 6:2 9:2 11:1 12:1 50:1 58:1 115:1 120:1 3934:1 #
-0.095066922858689020814360048916569 6:2 11:2 12:1 16:1 19:1 120:1 156:1 235:1 272:1 #
-0.095066922858689020814360048916569 4:1 6:1 7:1 14:1 21:1 43:1 210:1 787:1 #
-0.095066922858689020814360048916569 2:1 12:2 15:2 19:2 23:2 82:2 110:2 171:2 858:2 #
0.095066922858689020814360048916569 2:1 4:1 6:1 9:1 10:1 19:1 22:1 37:1 92:1 272:1 290:1 1561:1 1965:1 9114:1 #
0.095066922858689020814360048916569 2:1 4:1 6:1 11:1 15:1 16:1 17:1 22:1 23:1 43:1 78:1 91:1 116:1 120:1 433:1 668:1 #
-0.095066922858689020814360048916569 4:1 9:1 10:1 19:1 28:1 30:2 84:1 1372:2 #
-0.095066922858689020814360048916569 2:1 6:2 15:2 19:2 23:1 48:1 51:1 88:1 110:1 171:2 962:2 #
-0.095066922858689020814360048916569 2:1 4:1 9:1 30:1 51:1 140:1 247:1 #
-0.095066922858689020814360048916569 4:2 7:1 11:1 12:1 30:1 31:1 45:1 66:1 73:1 96:2 126:1 166:1 327:1 328:1 #
-0.095066922858689020814360048916569 4:2 9:1 12:2 13:1 25:2 30:1 32:1 34:1 53:1 353:2 #
-0.095066922858689020814360048916569 2:1 4:1 5:2 139:1 143:1 #
-0.095066922858689020814360048916569 2:1 4:1 6:2 10:1 18:1 37:1 42:1 44:1 70:1 86:1 99:1 119:1 120:1 147:1 533:1 853:1 #
-0.095066922858689020814360048916569 2:1 5:1 9:1 54:1 66:1 78:1 #
-0.095066922858689020814360048916569 2:1 11:1 18:1 45:1 50:1 61:1 83:1 #
-0.095066922858689020814360048916569 2:1 11:1 18:1 45:1 50:1 61:1 83:1 #
-0.095066922858689020814360048916569 2:1 5:2 6:3 9:1 15:1 40:1 63:1 78:1 107:1 110:1 142:1 550:1 850:1 1207:1 1314:1 #
-0.095066922858689020814360048916569 5:3 6:1 15:2 19:1 63:3 217:1 3285:3 #
-0.095066922858689020814360048916569 2:1 5:1 9:1 15:1 19:2 107:1 381:2 450:2 #
-0.095066922858689020814360048916569 2:1 10:1 11:1 18:1 23:1 78:1 82:1 256:1 639:1 #
-0.095066922858689020814360048916569 2:1 4:1 11:1 16:1 42:1 58:2 79:1 601:1 #
-0.095066922858689020814360048916569 4:2 9:1 16:1 29:1 31:1 73:1 84:1 101:1 153:1 293:1 1114:1 #
-0.095066922858689020814360048916569 2:1 4:1 5:1 9:1 10:1 12:1 16:1 22:1 34:1 39:1 47:1 136:1 161:1 237:1 975:1 1185:1 #
-0.095066922858689020814360048916569 2:1 5:1 12:1 13:1 44:1 237:1 #
-0.095066922858689020814360048916569 2:1 4:2 12:1 13:1 28:1 32:1 34:1 53:1 55:1 326:1 599:1 #
-0.095066922858689020814360048916569 5:2 6:2 9:2 15:2 110:1 299:2 352:2 776:2 #
-0.095066922858689020814360048916569 2:1 5:1 9:2 10:1 24:1 26:1 42:1 68:1 81:2 91:1 98:1 123:1 124:1 195:1 #
-0.095066922858689020814360048916569 2:1 4:2 5:1 9:3 15:1 17:2 27:1 149:1 539:1 1353:1 1644:1 #
-0.095066922858689020814360048916569 2:1 4:1 11:2 12:1 16:1 21:1 46:1 465:2 #
-0.095066922858689020814360048916569 2:1 11:2 23:2 100:2 2127:2 #
0.095066922858689020814360048916569 2:1 5:2 9:3 10:1 12:1 13:1 15:1 17:1 38:1 41:1 55:1 58:1 67:1 112:1 299:1 343:1 348:1 447:1 541:1 1762:1 #
-0.095066922858689020814360048916569 2:1 10:1 11:1 12:1 18:1 67:1 123:1 860:1 1841:1 #
-0.095066922858689020814360048916569 2:1 4:1 5:1 34:1 75:1 412:1 #
-0.095066922858689020814360048916569 2:1 5:1 9:1 13:1 32:1 46:1 73:1 1985:1 #
-0.095066922858689020814360048916569 2:1 6:4 17:2 18:3 22:1 987:2 1042:1 1427:2 1668:2 #
-0.095066922858689020814360048916569 2:1 6:3 11:1 12:1 18:1 76:1 184:1 270:1 535:1 889:1 #
-0.095066922858689020814360048916569 2:1 4:1 9:2 12:2 15:1 19:2 28:2 30:1 42:1 91:1 171:2 1516:2 #
-0.095066922858689020814360048916569 2:1 5:1 9:1 15:1 17:2 19:1 27:2 30:1 40:1 101:1 290:1 308:2 561:1 #
-0.095066922858689020814360048916569 2:1 10:1 11:1 12:1 77:1 214:1 #
-0.095066922858689020814360048916569 2:1 5:1 13:1 32:1 75:1 88:1 #
-0.095066922858689020814360048916569 4:1 5:1 6:2 15:1 19:1 41:1 47:1 98:1 263:1 269:1 278:1 304:1 342:1 #
-0.095066922858689020814360048916569 6:3 15:2 17:2 18:2 25:2 452:1 925:1 1027:1 2237:1 2905:1 #
-0.095066922858689020814360048916569 2:1 10:1 11:1 23:1 77:1 213:1 #
-0.095066922858689020814360048916569 2:1 5:1 11:2 12:2 13:1 16:1 32:1 46:1 53:1 67:1 677:1 #
-0.095066922858689020814360048916569 2:1 4:2 9:2 17:2 20:1 21:1 37:1 42:1 89:1 91:1 109:1 237:1 264:1 716:1 #
-0.095066922858689020814360048916569 4:1 6:2 7:1 9:1 11:1 17:2 21:1 22:1 40:1 257:1 467:1 555:1 #
-0.034937742545050783082860590411656 2:1 4:2 9:2 15:1 20:1 29:1 31:1 37:2 51:1 53:1 69:1 88:1 129:2 146:1 595:1 #
-0.095066922858689020814360048916569 7:1 10:1 11:1 12:1 13:1 16:1 18:1 25:1 57:1 60:1 104:1 123:1 152:1 156:1 167:1 569:1 #
-0.095066922858689020814360048916569 2:1 5:3 10:1 12:1 40:1 55:1 89:1 107:1 164:1 323:1 824:1 1083:1 9211:1 #
-0.095066922858689020814360048916569 2:1 5:1 9:1 11:1 12:2 13:1 16:1 32:1 67:1 68:1 80:1 180:1 573:1 #
-0.059435498254750689095526894334398 2:1 9:1 24:1 25:1 29:1 42:1 91:1 203:1 379:1 #
-0.095066922858689020814360048916569 2:1 5:2 10:2 15:1 39:2 316:2 #
-0.095066922858689020814360048916569 2:1 5:1 10:1 37:1 39:1 1679:1 #
-0.095066922858689020814360048916569 5:1 9:1 12:1 13:1 32:1 54:1 80:1 146:1 #
-0.095066922858689020814360048916569 2:1 5:1 9:1 54:1 66:1 78:1 #
-0.095066922858689020814360048916569 4:1 7:1 31:1 70:1 81:1 286:1 #
-0.095066922858689020814360048916569 4:1 7:1 50:1 85:1 89:1 97:1 #
-0.095066922858689020814360048916569 4:2 89:2 1295:2 #
-0.095066922858689020814360048916569 4:1 7:1 9:1 28:1 55:1 73:1 84:1 348:1 1391:1 #
0.095066922858689020814360048916569 2:1 4:1 5:1 6:1 9:1 16:2 17:2 18:1 30:1 37:1 95:1 139:1 1659:1 1764:1 4164:1 #
0.095066922858689020814360048916569 2:1 6:2 11:1 12:1 19:1 37:1 67:1 270:1 276:1 874:1 1285:1 #
-0.095066922858689020814360048916569 2:1 4:1 5:1 34:1 40:1 381:1 #
-0.095066922858689020814360048916569 2:1 10:1 11:1 18:1 57:1 273:1 365:1 #
-0.045795798665939815852432559495355 2:1 10:2 11:2 15:3 23:2 78:2 256:2 638:2 #
-0.095066922858689020814360048916569 6:1 15:1 17:4 18:1 25:1 117:2 139:1 925:1 3457:1 #
-0.095066922858689020814360048916569 2:1 9:2 15:2 17:2 30:1 51:1 88:2 110:1 255:1 1527:1 1952:1 #
0.095066922858689020814360048916569 2:1 4:2 5:1 9:1 11:1 12:1 15:1 21:2 22:1 31:1 39:1 46:1 60:1 64:1 76:1 80:1 210:1 #
-0.095066922858689020814360048916569 2:1 6:3 12:1 18:1 19:1 41:1 98:1 164:1 396:1 1339:1 #
-0.095066922858689020814360048916569 2:1 4:1 6:1 9:1 23:1 41:1 70:1 86:1 158:1 267:1 302:1 #
-0.095066922858689020814360048916569 2:1 11:1 18:1 45:1 50:1 61:1 83:1 #
-0.095066922858689020814360048916569 2:1 6:1 9:1 11:1 12:1 115:1 120:1 3099:1 #
0.095066922858689020814360048916569 2:1 9:1 10:1 18:1 23:1 62:1 70:1 82:1 153:1 302:1 531:1 831:1 #
0.095066922858689020814360048916569 2:1 5:2 6:1 9:1 11:1 15:1 19:1 20:1 21:1 37:1 39:1 45:1 89:1 162:2 179:1 217:1 344:1 386:1 456:1 468:1 540:1 1302:1 #
-0.095066922858689020814360048916569 2:1 6:2 9:1 15:2 63:3 443:1 481:3 837:1 #
-0.095066922858689020814360048916569 2:1 6:1 9:2 11:1 12:1 15:1 54:1 56:1 97:1 98:1 1039:1 #
0.095066922858689020814360048916569 2:1 5:1 6:1 9:1 12:1 29:1 34:1 40:1 63:1 90:1 413:1 1267:1 #
-0.095066922858689020814360048916569 4:1 5:1 16:1 29:1 37:1 69:1 136:1 149:1 4501:1 #
0.095066922858689020814360048916569 2:1 5:2 6:1 9:1 11:1 12:2 15:1 27:1 39:1 55:1 91:1 115:1 192:1 314:1 #
-0.095066922858689020814360048916569 2:1 5:1 12:1 18:1 34:1 90:1 252:1 #
-0.095066922858689020814360048916569 2:1 6:1 11:2 12:2 36:1 55:1 67:1 130:1 214:1 #
-0.095066922858689020814360048916569 4:1 7:1 14:1 21:1 43:1 45:1 210:1 #
-0.095066922858689020814360048916569 2:1 4:1 5:1 10:1 18:1 19:1 34:1 75:1 551:1 699:1 #
-0.095066922858689020814360048916569 2:1 9:2 15:2 20:2 57:2 62:2 102:2 110:1 1640:2 #
-0.095066922858689020814360048916569 2:2 4:1 5:1 9:1 15:1 27:1 55:1 84:1 273:1 301:2 348:1 1592:1 5943:1 6886:1 #
-0.095066922858689020814360048916569 2:1 11:1 18:1 45:1 50:1 61:1 83:1 #
-0.095066922858689020814360048916569 7:1 10:1 11:1 12:2 13:1 15:1 18:1 67:1 167:1 192:1 226:1 401:1 #
-0.095066922858689020814360048916569 6:1 7:1 12:1 16:1 21:1 41:1 53:1 156:1 164:1 264:1 #
-0.095066922858689020814360048916569 2:1 4:1 6:2 7:1 15:1 17:1 19:1 30:1 73:1 96:1 166:1 674:3 3588:2 #
-0.095066922858689020814360048916569 4:1 6:1 7:1 21:1 43:1 210:1 787:1 #
-0.095066922858689020814360048916569 2:1 4:3 5:2 14:1 17:2 20:1 34:1 53:2 302:3 #
0.095066922858689020814360048916569 2:1 5:1 6:1 31:1 44:1 203:1 #
-0.095066922858689020814360048916569 2:1 12:1 37:1 119:1 216:1 742:1 #
-0.095066922858689020814360048916569 2:1 6:1 9:1 11:1 12:2 29:1 37:1 38:1 76:1 270:1 360:1 #
-0.095066922858689020814360048916569 5:1 6:1 9:1 15:2 34:1 50:1 54:1 110:1 114:1 854:1 1285:1 #
-0.095066922858689020814360048916569 2:1 5:1 13:1 32:1 35:1 58:1 81:1 #
0.077338730593180055050694932106126 2:1 20:1 50:1 83:1 128:1 760:1 #
-0.095066922858689020814360048916569 10:1 17:2 19:1 576:5 1568:5 5387:1 #
-0.095066922858689020814360048916569 4:1 9:1 15:1 28:1 186:2 2850:1 15716:1 #
-0.095066922858689020814360048916569 2:1 4:1 5:1 9:1 39:1 75:1 413:1 #
-0.095066922858689020814360048916569 2:1 9:1 10:1 11:2 15:1 18:1 19:1 35:1 47:3 54:1 214:1 269:1 275:1 424:1 #
0.095066922858689020814360048916569 2:1 4:1 6:1 9:1 12:1 15:2 18:1 19:1 46:1 48:1 80:1 82:1 88:1 214:1 223:1 404:1 #
-0.095066922858689020814360048916569 4:2 7:1 21:1 42:1 46:1 50:1 162:1 #
-0.095066922858689020814360048916569 2:1 4:1 5:1 6:1 18:1 19:1 25:1 28:1 39:1 162:1 171:1 192:1 404:1 934:1 #
-0.0026970268699726723977960762823614 2:1 5:1 9:1 10:1 11:1 12:1 13:1 21:1 27:1 30:1 32:1 33:1 35:1 46:1 55:1 2216:1 10801:1 #
-0.095066922858689020814360048916569 2:1 6:2 9:1 12:1 19:1 38:1 41:1 88:1 115:1 120:1 408:1 3752:1 #
-0.095066922858689020814360048916569 2:1 4:1 5:1 37:1 39:1 54:1 83:1 162:1 #
-0.060578539502728512289309037441853 6:7 18:6 693:7 #
-0.073411714112047679603456629138236 2:1 5:1 11:1 16:1 18:1 21:1 39:1 285:1 #
-0.095066922858689020814360048916569 2:1 13:1 23:1 54:1 83:1 99:1 135:1 #
-0.095066922858689020814360048916569 2:1 13:1 51:1 54:1 83:1 99:1 135:1 #
-0.095066922858689020814360048916569 2:1 9:1 11:1 12:1 54:1 98:1 163:1 #
-0.095066922858689020814360048916569 2:1 82:9 901:8 1536:1 #
-0.095066922858689020814360048916569 2:1 15:1 17:10 110:6 150:1 #
-0.095066922858689020814360048916569 2:1 4:1 29:1 42:1 162:1 266:1 #
-0.095066922858689020814360048916569 2:1 9:1 11:1 12:2 15:4 17:2 31:1 56:1 98:1 150:4 #
-0.095066922858689020814360048916569 33:3 59:7 #
0.095066922858689020814360048916569 5:1 14:2 66:1 67:1 96:1 4182:1 17087:1 #
0.095066922858689020814360048916569 2:1 5:1 66:1 96:1 257:1 395:1 #
0.03521489938324448565332147609297 2:1 132:1 185:1 1151:1 1159:1 4501:1 4893:1 7650:1 #
0.095066922858689020814360048916569 2:1 10:1 11:1 12:1 24:1 30:1 42:1 53:1 67:2 86:1 132:1 394:1 414:1 1868:1 #
0.095066922858689020814360048916569 2:1 5:1 18:1 66:1 88:1 107:1 209:1 #
-0.095066922858689020814360048916569 2:1 9:1 12:1 31:1 51:1 107:1 #
0.095066922858689020814360048916569 2:1 5:1 31:1 37:1 62:1 90:1 138:1 379:1 616:1 #
-0.095066922858689020814360048916569 5:1 9:1 13:1 21:1 32:1 46:1 95:1 #
0.095066922858689020814360048916569 2:1 6:2 11:1 12:1 15:1 18:1 25:1 51:1 61:1 83:1 159:1 182:1 206:1 352:1 357:1 5851:1 #
0.095066922858689020814360048916569 2:1 11:1 12:1 31:1 83:1 150:1 254:1 1232:1 #
0.095066922858689020814360048916569 2:1 35:5 45:1 59:1 #
-0.095066922858689020814360048916569 2:1 4:1 7:1 43:1 58:1 79:1 2227:1 #
0.0068936670566830671180724721125443 2:1 5:1 11:1 18:1 37:1 124:1 126:1 149:1 473:1 1900:1 4046:1 #
-0.095066922858689020814360048916569 2:1 5:1 12:1 13:1 44:1 124:1 126:1 344:1 #
0.095066922858689020814360048916569 4:1 5:1 7:1 13:1 31:1 46:1 81:1 112:1 #
-0.095066922858689020814360048916569 4:1 5:1 7:1 21:1 46:1 145:1 #
-0.095066922858689020814360048916569 2:1 5:2 13:1 16:1 31:1 38:1 39:1 44:1 160:1 #
0.0029747570164047327893885874772195 2:1 6:1 9:1 17:2 110:2 164:1 481:1 561:1 1085:1 1096:1 1587:1 2917:1 5055:1 10846:1 #
0.095066922858689020814360048916569 2:1 4:2 5:2 15:1 21:2 31:4 441:1 #
0.095066922858689020814360048916569 2:1 4:1 5:2 21:1 25:1 31:1 34:1 44:1 68:1 75:1 97:1 296:1 1464:1 7401:1 #
0.095066922858689020814360048916569 2:1 4:2 5:1 9:1 12:1 20:1 34:2 53:1 64:1 67:1 98:1 129:1 130:1 356:1 #
0.095066922858689020814360048916569 2:1 5:2 21:1 31:1 34:1 44:1 75:1 #
-0.095066922858689020814360048916569 2:1 5:1 12:1 13:1 31:1 112:1 #
0.095066922858689020814360048916569 5:2 13:1 17:1 112:1 331:1 #
0.095066922858689020814360048916569 2:1 4:1 5:2 34:1 110:1 609:1 846:1 #
-0.095066922858689020814360048916569 104:18 132:1 #
0.095066922858689020814360048916569 2:4 11:1 12:1 105:1 123:1 #
0.095066922858689020814360048916569 2:4 246:1 517:2 667:1 1793:1 2732:1 #
0.095066922858689020814360048916569 2:4 10:1 11:2 16:2 61:1 644:1 1735:1 #
0.095066922858689020814360048916569 2:1 5:1 23:1 41:1 178:1 986:1 4633:1 #
0.095066922858689020814360048916569 10:1 15:1 18:1 23:1 44:1 77:1 86:1 120:1 174:1 192:1 290:1 529:1 1031:1 1105:1 3306:1 5376:1 #
-0.095066922858689020814360048916569 2:1 5:1 10:1 37:1 39:1 282:1 782:1 #
0.095066922858689020814360048916569 10:2 17:3 20:1 23:1 123:1 275:1 1090:1 #
0.092571705409278531861971828220703 2:1 9:1 10:1 33:1 166:1 206:1 1772:1 7551:1 #
0.095066922858689020814360048916569 2:1 6:1 9:1 11:1 83:1 98:1 119:1 1622:1 5045:1 6074:1 #
-0.095066922858689020814360048916569 4:1 7:1 21:1 31:1 43:1 162:1 #
-0.095066922858689020814360048916569 2:1 5:1 28:1 37:1 149:1 185:1 #
-0.095066922858689020814360048916569 4:1 7:1 21:1 42:1 46:1 51:1 95:1 162:1 #
0.095066922858689020814360048916569 2:1 4:1 5:1 10:1 17:2 21:1 22:1 37:1 42:1 77:1 105:1 145:1 1277:1 #
-0.095066922858689020814360048916569 4:1 5:1 37:1 54:1 83:1 149:1 162:1 #
-0.095066922858689020814360048916569 2:1 4:1 5:1 10:1 16:1 34:1 40:1 129:1 356:1 1080:1 #
0.095066922858689020814360048916569 2:1 4:1 19:1 29:1 34:1 35:1 98:1 281:1 718:1 4145:1 #
0.095066922858689020814360048916569 4:2 7:1 9:1 31:1 42:1 81:1 86:1 1935:1 2923:1 #
0.095066922858689020814360048916569 4:2 7:1 31:1 42:1 81:1 91:1 92:1 #
0.095066922858689020814360048916569 4:2 7:1 31:1 42:1 79:1 81:1 4838:1 #
0.095066922858689020814360048916569 2:1 6:1 12:3 14:1 20:1 28:1 37:1 41:1 249:1 327:1 444:2 561:1 #
0.095066922858689020814360048916569 2:1 5:1 10:1 12:1 41:2 92:1 181:1 232:1 306:1 #
0.0022955282853261058627347690475062 2:1 12:3 311:3 #
0.095066922858689020814360048916569 2:1 12:1 23:1 41:2 105:1 143:1 1129:1 2139:1 4794:1 #
0.095066922858689020814360048916569 2:1 4:1 6:1 12:3 15:1 23:1 46:1 430:2 1093:1 #
0.095066922858689020814360048916569 2:1 5:2 9:1 13:1 17:2 38:1 44:1 84:1 139:1 #
-0.095066922858689020814360048916569 2:1 5:1 9:1 16:1 39:1 160:1 218:1 #
0.095066922858689020814360048916569 2:1 5:2 6:1 9:1 13:1 15:1 17:2 18:1 20:1 21:1 31:1 51:1 59:1 84:2 112:1 158:1 252:1 408:1 #
0.095066922858689020814360048916569 4:1 11:2 12:1 23:1 31:1 83:2 95:2 98:1 118:2 204:1 #
0.095066922858689020814360048916569 4:1 7:1 31:1 45:1 290:1 784:1 #
0.095066922858689020814360048916569 2:1 10:2 11:1 19:1 23:1 381:2 418:1 1141:2 #
0.095066922858689020814360048916569 4:3 5:1 6:1 9:2 14:1 21:1 25:1 34:1 66:1 247:1 408:1 427:1 5533:1 #
0.095066922858689020814360048916569 2:1 5:1 6:1 9:2 21:1 37:1 51:1 66:1 80:1 87:1 172:1 180:1 274:1 352:1 #
0.095066922858689020814360048916569 2:1 5:1 9:2 35:1 37:1 39:1 180:1 321:1 6115:1 #
0.095066922858689020814360048916569 2:1 5:1 9:2 39:1 54:1 285:1 381:1 #
0.095066922858689020814360048916569 2:1 4:1 6:1 9:2 12:1 18:1 29:1 37:1 42:1 535:1 #
-0.095066922858689020814360048916569 53:1 194:18 #
-0.095066922858689020814360048916569 4:1 5:1 7:1 21:1 46:1 145:1 #
0.095066922858689020814360048916569 2:1 11:1 13:1 15:1 19:1 23:1 35:1 36:1 37:2 45:1 47:1 82:1 96:1 138:1 232:1 672:1 24498:1 #
0.095066922858689020814360048916569 2:1 6:1 18:1 23:1 35:1 122:1 1815:1 2434:1 8174:1 #
0.095066922858689020814360048916569 2:1 15:1 18:1 24:2 42:2 45:1 91:1 142:1 296:1 14680:1 #
-0.095066922858689020814360048916569 2:1 11:1 18:1 45:1 50:1 61:1 83:1 #
-0.029445019969445460766843680744387 2:6 6:2 11:1 12:1 37:1 76:1 270:1 2732:6 #
-0.095066922858689020814360048916569 2:1 4:1 12:1 37:1 42:1 119:1 162:1 #
0.095066922858689020814360048916569 2:1 5:4 15:1 28:1 39:4 68:1 160:1 585:1 842:1 1929:1 3381:1 #
0.095066922858689020814360048916569 2:1 5:4 13:1 31:1 38:1 81:2 85:1 112:1 #
0.095066922858689020814360048916569 2:1 4:1 5:2 10:1 13:1 39:1 112:1 129:1 160:1 670:1 1567:1 #
-0.095066922858689020814360048916569 2:1 5:1 10:1 37:1 39:1 1994:1 #
-0.095066922858689020814360048916569 4:2 13:1 28:1 32:1 34:1 53:1 326:1 599:1 #
0.095066922858689020814360048916569 2:1 4:1 15:1 20:1 37:1 42:3 51:2 89:2 93:1 162:1 163:1 #
0.095066922858689020814360048916569 2:1 9:1 26:1 43:1 91:1 184:1 218:1 1853:1 #
0.095066922858689020814360048916569 2:1 4:1 25:1 26:1 131:1 210:1 2013:1 #
0.042681905281710529054262082127025 4:3 15:1 42:1 110:1 200:1 386:1 716:1 1953:1 #
0.095066922858689020814360048916569 4:2 5:1 7:1 31:1 46:1 73:1 132:1 139:1 #
-0.095066922858689020814360048916569 4:1 7:1 13:1 20:1 79:1 93:1 112:1 #
-0.095066922858689020814360048916569 2:1 5:1 6:1 9:2 13:1 54:1 80:1 112:1 17082:1 #
0.095066922858689020814360048916569 2:1 4:1 5:1 33:1 34:1 37:1 42:1 59:1 412:1 414:1 717:1 11192:1 #
0.095066922858689020814360048916569 4:2 7:1 9:1 13:1 42:1 93:1 285:1 363:1 10691:1 #
0.095066922858689020814360048916569 4:2 6:1 7:1 13:1 42:1 94:1 278:1 363:1 8161:1 #
-0.059348556346121544846639039860747 2:1 9:1 24:1 37:1 42:1 91:1 126:1 416:1 676:1 #
0.095066922858689020814360048916569 2:1 6:2 11:1 12:1 18:1 94:1 611:1 1044:1 #
-0.095066922858689020814360048916569 4:1 6:1 7:1 11:1 14:1 21:1 40:1 226:1 #
-0.095066922858689020814360048916569 2:1 5:1 12:1 13:1 32:1 80:1 #
0.095066922858689020814360048916569 4:2 7:1 21:1 74:1 145:1 303:1 #
-0.095066922858689020814360048916569 4:1 6:1 9:1 10:1 11:1 19:1 42:1 63:1 70:1 86:1 91:1 265:1 1523:1 #
-0.095066922858689020814360048916569 11:2 14:1 54:2 83:2 #
0.095066922858689020814360048916569 2:1 4:1 6:2 18:1 19:1 42:1 288:1 1044:1 1995:1 #
0.095066922858689020814360048916569 4:2 7:1 10:1 13:1 44:1 106:1 123:1 527:1 962:1 #
0.08243836550473992996757033324684 2:1 5:1 6:1 12:1 15:1 25:1 34:2 90:1 98:1 195:1 202:1 3663:1 #
-0.095066922858689020814360048916569 4:2 9:1 12:2 13:1 30:1 31:1 32:1 34:1 53:1 55:1 238:1 #
0.095066922858689020814360048916569 4:2 13:1 14:1 32:1 95:1 150:1 194:1 526:1 903:1 2445:1 #
0.023157973995798612071306266102511 2:1 18:2 26:1 4421:1 16411:1 #
-0.095066922858689020814360048916569 2:1 5:1 34:1 40:1 48:1 427:1 #
0.095066922858689020814360048916569 2:1 11:2 12:2 35:1 37:1 241:1 #
0.095066922858689020814360048916569 2:1 4:1 6:1 11:1 12:1 19:1 42:1 55:1 263:1 270:1 #
-0.095066922858689020814360048916569 4:1 5:1 7:1 9:1 21:1 39:1 46:1 95:1 347:1 #
0.095066922858689020814360048916569 2:1 4:1 6:1 9:2 12:1 18:1 29:1 37:1 42:1 535:1 #
-0.095066922858689020814360048916569 2:1 11:1 12:1 23:1 37:1 119:1 162:1 #
-0.095066922858689020814360048916569 2:1 6:2 9:3 15:2 23:1 48:1 59:1 110:1 299:1 352:1 448:1 776:2 #
0.095066922858689020814360048916569 4:2 7:1 11:1 12:1 81:1 145:1 677:1 #
0.095066922858689020814360048916569 2:1 4:2 37:1 42:2 79:1 281:1 372:1 399:1 1513:1 #
-0.095066922858689020814360048916569 2:1 11:1 12:1 23:1 37:1 119:1 162:1 #
0.095066922858689020814360048916569 2:1 4:2 9:1 21:1 31:1 85:1 109:1 751:1 #
0.095066922858689020814360048916569 4:2 7:1 21:1 42:1 43:1 210:2 306:1 #
-0.095066922858689020814360048916569 2:1 13:1 23:1 54:1 83:1 99:1 135:1 #
-0.095066922858689020814360048916569 4:2 7:1 9:1 20:1 37:1 42:1 43:1 62:1 91:1 829:1 #
0.095066922858689020814360048916569 4:2 7:1 9:1 13:1 44:2 50:1 381:1 #
0.095066922858689020814360048916569 7:1 10:1 11:1 20:1 55:1 86:1 162:1 237:1 322:1 #
-0.095066922858689020814360048916569 4:1 5:1 37:1 54:1 69:1 83:1 #
-0.095066922858689020814360048916569 4:1 7:1 13:1 21:1 32:1 53:1 #
-0.095066922858689020814360048916569 4:1 7:1 12:1 13:1 32:1 55:1 #
-0.095066922858689020814360048916569 2:1 5:1 37:1 39:1 162:1 867:1 #
-0.095066922858689020814360048916569 2:1 5:1 37:1 39:1 162:1 867:1 #
-0.095066922858689020814360048916569 2:1 5:1 12:1 13:1 44:1 237:1 #
-0.095066922858689020814360048916569 6:1 9:1 11:1 12:1 16:1 20:1 120:1 156:1 1683:1 #
-0.095066922858689020814360048916569 7:1 21:1 24:1 31:2 56:1 #
0.0096200361390212825452028511108438 2:1 6:1 88:1 165:1 421:1 1237:1 #
-0.095066922858689020814360048916569 4:1 7:1 31:1 70:1 81:1 286:1 #
0.095066922858689020814360048916569 2:1 5:1 6:2 10:1 16:1 19:1 22:1 25:1 37:1 38:1 55:1 192:1 237:1 834:1 1472:1 1817:1 4482:1 #
0.095066922858689020814360048916569 2:1 5:1 9:1 27:1 50:1 97:1 376:1 1142:1 #
0.095066922858689020814360048916569 2:1 5:2 9:1 10:1 29:1 35:1 267:1 317:1 3151:1 #
0.095066922858689020814360048916569 2:1 5:2 39:2 91:2 137:2 #
-0.095066922858689020814360048916569 10:1 11:1 18:1 19:1 57:1 74:1 78:1 275:1 719:2 #
0.095066922858689020814360048916569 7:1 10:1 11:1 18:1 273:1 3906:1 #
0.095066922858689020814360048916569 4:1 7:1 21:1 31:2 58:1 #
0.095066922858689020814360048916569 4:1 7:1 9:1 12:1 31:1 37:1 43:1 91:1 102:1 108:1 #
0.095066922858689020814360048916569 4:3 13:1 17:1 21:1 32:1 42:1 46:1 53:1 55:1 102:1 210:1 #
-0.095066922858689020814360048916569 9:1 14:1 24:1 42:1 48:1 50:1 91:1 #
0.095066922858689020814360048916569 2:1 4:1 5:1 18:1 29:1 34:1 56:1 252:1 473:1 #
-0.050570352319508987681828671156836 2:1 6:1 9:2 10:1 11:1 12:1 18:1 275:1 332:2 3562:4 #
-0.095066922858689020814360048916569 10:1 14:1 22:1 26:1 648:1 769:1 #
-0.095066922858689020814360048916569 4:1 5:1 9:2 45:1 59:1 221:1 267:1 #
0.095066922858689020814360048916569 2:4 7:1 10:1 13:1 21:1 32:1 195:1 517:1 916:1 2645:1 18142:1 #
-0.095066922858689020814360048916569 2:1 13:1 21:1 23:1 33:1 41:1 46:1 91:1 112:1 157:1 #
-0.095066922858689020814360048916569 2:1 4:1 9:1 11:1 12:1 75:1 150:1 229:1 #
0.095066922858689020814360048916569 2:1 4:1 5:3 13:1 21:1 31:1 32:1 39:1 46:1 53:1 101:1 109:1 330:1 445:1 #
0.095066922858689020814360048916569 6:1 9:1 11:1 22:1 70:1 75:1 83:1 86:1 811:1 1619:1 #
-0.095066922858689020814360048916569 2:1 5:1 10:1 37:1 39:1 316:1 #
0.095066922858689020814360048916569 9:1 11:1 29:1 37:1 57:1 126:1 162:1 332:1 595:1 13401:1 #
0.095066922858689020814360048916569 11:2 15:1 18:1 57:2 866:1 966:1 1427:1 1439:1 14093:1 #
0.095066922858689020814360048916569 2:1 9:1 11:1 12:1 55:1 144:1 386:1 5053:1 #
-0.095066922858689020814360048916569 4:2 7:1 10:1 19:1 21:1 28:1 31:1 53:1 101:1 107:1 785:1 988:1 1516:1 #
-0.08980463768004694202762294708009 2:1 6:1 9:1 24:1 25:1 29:1 42:1 91:1 379:1 497:1 #
0.095066922858689020814360048916569 2:2 4:1 5:2 9:1 10:1 15:1 39:1 80:1 91:1 221:1 555:1 #
0.059838593999081111929339016342055 2:1 5:2 37:1 39:1 56:1 317:1 573:1 4452:1 #
0.095066922858689020814360048916569 2:1 5:2 9:1 10:1 29:1 37:1 39:1 70:1 80:1 158:1 3786:1 #
0.095066922858689020814360048916569 4:1 5:1 9:1 531:1 835:1 1243:1 #
-0.095066922858689020814360048916569 2:1 11:1 12:1 15:1 774:2 #
-0.095066922858689020814360048916569 2:4 5:1 7:1 12:1 14:1 25:1 34:1 353:1 390:4 1589:4 #
0.095066922858689020814360048916569 4:1 6:1 7:1 11:2 23:1 43:1 136:1 308:1 15373:1 #
0.095066922858689020814360048916569 4:3 7:1 13:1 15:1 32:1 42:1 58:1 81:1 624:1 1135:1 #
0.095066922858689020814360048916569 4:1 11:1 14:1 23:1 162:1 302:1 #
-0.095066922858689020814360048916569 5:1 9:1 13:1 21:1 32:1 46:1 95:1 #
-0.056548260947012055077642855849263 5:2 14:1 15:1 18:2 39:2 8935:2 9240:2 #
0.095066922858689020814360048916569 2:1 5:1 9:1 39:1 8594:1 17105:1 #
-0.095066922858689020814360048916569 2:1 4:1 5:1 656:1 3914:1 6440:1 #
-0.095066922858689020814360048916569 2:1 11:1 18:1 45:1 50:1 61:1 83:1 #
0.095066922858689020814360048916569 2:1 35:2 41:1 57:1 105:1 362:1 #
-0.095066922858689020814360048916569 2:1 4:1 5:1 13:1 44:1 218:1 #
0.095066922858689020814360048916569 2:1 4:1 5:4 6:1 9:1 13:1 16:1 30:1 36:1 41:1 53:1 68:1 193:1 220:1 247:1 351:1 445:1 460:1 862:1 898:1 #
0.095066922858689020814360048916569 2:1 4:1 5:4 13:1 20:1 21:1 32:1 38:1 55:1 63:1 89:1 95:1 145:1 246:1 6175:1 #
0.095066922858689020814360048916569 2:1 5:3 13:1 32:1 34:1 76:2 81:1 150:1 166:1 194:1 290:1 1295:1 #
0.095066922858689020814360048916569 2:1 4:1 5:3 6:1 25:1 37:1 39:1 41:1 101:1 107:1 160:1 217:1 237:1 379:1 1029:1 #
-0.095066922858689020814360048916569 15:1 17:2 24:1 110:1 177:1 184:1 426:1 907:1 #
-0.095066922858689020814360048916569 4:1 15:1 29:1 69:1 545:2 #
-0.095066922858689020814360048916569 4:1 5:1 6:1 9:1 20:1 29:1 40:1 70:1 86:1 109:1 178:1 267:1 #
-0.095066922858689020814360048916569 4:1 6:1 42:1 70:1 86:1 120:1 430:1 5938:2 12254:2 #
-0.095066922858689020814360048916569 4:1 6:1 20:1 42:1 44:1 70:1 86:1 120:1 165:1 #
0.022591511281783445419524269937028 2:3 5:2 6:1 9:1 10:2 72:1 118:1 119:1 272:1 331:1 336:1 2645:1 5521:1 #
0.095066922858689020814360048916569 2:2 4:1 12:1 13:1 16:1 18:1 32:1 35:2 50:1 61:1 72:1 405:1 #
0.095066922858689020814360048916569 2:1 5:2 9:1 18:1 21:1 30:1 39:1 61:1 118:1 161:1 569:1 1915:1 1972:1 2950:1 #
0.072866552314513055588207635082654 2:1 4:1 6:1 10:1 19:1 59:1 67:1 94:1 154:1 199:1 860:1 2313:1 #
-0.095066922858689020814360048916569 2:1 10:1 11:1 12:1 98:1 166:1 #
0.095066922858689020814360048916569 2:1 29:1 44:1 105:1 362:1 436:1 782:1 #
-0.095066922858689020814360048916569 2:1 5:1 9:1 41:1 67:1 165:1 347:1 #
-0.095066922858689020814360048916569 5:1 18:1 34:1 48:1 90:1 252:1 #
-0.095066922858689020814360048916569 2:1 5:1 9:1 11:1 12:2 13:1 16:1 18:1 27:1 44:1 50:1 61:1 67:1 197:1 559:1 #
-0.095066922858689020814360048916569 2:1 9:1 18:1 24:1 45:1 50:1 61:1 66:1 78:1 #
-0.095066922858689020814360048916569 5:2 13:2 18:1 29:1 45:1 53:1 61:1 96:1 215:1 862:1 934:1 #
-0.095066922858689020814360048916569 2:1 4:1 5:1 9:1 13:1 20:1 80:1 93:1 112:1 #
0.095066922858689020814360048916569 2:1 4:1 13:1 23:1 35:4 135:1 614:1 #
0.095066922858689020814360048916569 6:1 10:1 22:1 214:1 3419:1 5969:1 #
-0.095066922858689020814360048916569 4:1 5:1 6:1 7:1 11:1 21:1 35:8 40:1 56:1 149:1 175:1 226:1 #
-0.095066922858689020814360048916569 2:1 15:1 20:3 23:2 58:1 132:1 1090:3 #
-0.095066922858689020814360048916569 2:1 4:1 17:1 25:1 29:1 35:1 47:2 69:1 124:1 5411:1 #
0.095066922858689020814360048916569 2:1 4:1 5:1 10:1 17:2 21:1 22:1 37:1 42:1 77:1 105:1 145:1 1277:1 #
0.095066922858689020814360048916569 2:1 5:3 13:3 297:3 #
0.095066922858689020814360048916569 2:1 5:1 11:1 12:1 18:1 21:1 48:1 68:1 139:1 490:1 #
0.095066922858689020814360048916569 2:1 5:3 11:1 12:1 27:1 41:1 780:1 #
-0.095066922858689020814360048916569 4:1 5:1 7:1 21:1 46:1 145:1 #
0.095066922858689020814360048916569 2:1 4:1 11:1 12:1 46:1 62:1 110:1 564:1 856:1 #
0.095066922858689020814360048916569 6:1 7:1 11:2 20:1 21:1 25:1 93:1 226:1 288:1 925:1 #
0.095066922858689020814360048916569 2:1 6:4 15:1 69:1 620:2 660:1 792:2 #
0.095066922858689020814360048916569 2:1 6:1 10:1 15:1 17:1 19:1 23:2 61:1 110:1 322:1 426:1 470:1 1242:1 1243:1 6928:1 7753:1 #
-0.095066922858689020814360048916569 10:2 11:2 38:1 57:2 123:2 207:2 #
-0.095066922858689020814360048916569 5:1 6:1 10:1 19:2 232:1 979:1 6237:1 #
-0.095066922858689020814360048916569 5:1 6:2 19:1 75:1 950:1 1561:1 4016:1 #
0.090605864861161761192320795998967 2:1 6:1 43:1 110:1 12120:1 14017:1 #
0.095066922858689020814360048916569 2:1 9:1 10:1 11:1 55:1 57:1 58:1 238:1 1994:1 2336:1 #
0.095066922858689020814360048916569 2:1 5:1 9:1 29:1 108:1 220:1 290:1 595:1 #
0.095066922858689020814360048916569 2:1 4:2 9:2 15:1 16:1 21:1 22:1 31:1 43:1 45:1 91:1 234:1 510:1 6830:1 #
0.095066922858689020814360048916569 2:1 5:1 9:1 39:1 91:1 458:1 #
0.095066922858689020814360048916569 2:1 5:1 12:2 13:1 18:1 21:1 32:1 38:1 41:1 46:1 47:1 61:1 234:1 #
-0.095066922858689020814360048916569 2:1 4:1 9:1 11:1 12:1 18:1 22:1 27:1 28:1 185:1 401:1 838:1 3145:1 #
-0.095066922858689020814360048916569 2:1 4:1 9:1 12:1 18:1 22:1 27:1 28:1 838:1 1995:1 3145:1 #
-0.095066922858689020814360048916569 2:1 4:2 5:1 9:2 12:2 20:1 53:1 84:2 129:2 #
-0.095066922858689020814360048916569 2:1 4:2 5:1 9:1 20:1 21:1 25:1 48:1 85:1 101:1 111:1 303:1 590:1 #
0.095066922858689020814360048916569 5:1 6:2 7:1 19:2 21:1 97:1 149:1 588:1 1784:1 2046:1 #
0.095066922858689020814360048916569 2:1 4:1 11:1 12:1 16:1 73:1 3719:1 #
-0.095066922858689020814360048916569 2:1 4:1 5:1 25:1 66:1 96:1 366:1 #
-0.095066922858689020814360048916569 2:1 6:4 17:2 18:2 38:1 43:1 153:2 463:2 #
-0.095066922858689020814360048916569 2:1 6:2 17:2 19:1 43:1 51:1 272:1 309:1 362:1 4608:1 #
0.095066922858689020814360048916569 2:1 9:1 10:1 16:1 18:1 19:1 20:1 45:1 48:1 75:1 83:1 94:1 233:1 356:1 373:1 386:1 #
0.095066922858689020814360048916569 2:1 4:1 9:1 10:2 11:1 19:1 25:2 83:1 308:1 561:1 1889:1 5049:1 5938:1 8514:1 12254:1 #
0.095066922858689020814360048916569 2:1 4:1 22:1 26:1 29:1 34:1 91:1 92:1 #
0.095066922858689020814360048916569 4:1 5:1 7:1 9:1 10:1 20:1 31:1 44:1 221:1 1183:1 #
-0.095066922858689020814360048916569 2:1 5:1 9:1 13:1 21:1 32:1 48:1 252:1 696:1 #
-0.095066922858689020814360048916569 2:1 5:1 30:1 60:1 76:2 274:1 1159:1 1257:1 8185:1 #
-0.095066922858689020814360048916569 2:1 5:1 10:1 18:1 37:1 38:1 94:1 149:1 2190:1 #
-0.095066922858689020814360048916569 2:1 5:1 37:1 60:1 149:1 667:1 #
0.028487195595502917688790489592066 2:1 6:1 9:1 15:1 18:1 941:1 1925:1 2825:1 19189:1 #
0.095066922858689020814360048916569 2:1 6:3 9:1 18:2 36:1 87:1 115:1 837:1 1216:1 1904:2 1940:1 2613:1 #
-0.095066922858689020814360048916569 2:1 4:1 5:1 34:1 97:1 206:1 #
-0.095066922858689020814360048916569 2:1 6:4 17:2 18:2 38:1 43:1 153:2 463:2 #
0.095066922858689020814360048916569 2:1 5:3 41:1 58:1 75:1 183:1 257:1 306:1 694:1 1091:1 #
0.095066922858689020814360048916569 2:1 5:2 13:1 28:1 39:1 50:1 102:1 112:1 160:1 201:1 307:1 517:1 #
-0.095066922858689020814360048916569 2:1 4:1 5:1 6:1 19:1 34:1 75:1 217:1 #
-0.034814960358581406585365414230182 2:1 4:1 9:1 11:1 12:1 229:1 348:1 #
-0.095066922858689020814360048916569 2:1 5:1 11:1 13:1 23:2 32:1 46:1 87:2 92:2 108:1 234:1 #
-0.095066922858689020814360048916569 2:1 10:1 12:1 20:1 25:1 41:1 179:2 241:1 2009:1 2613:2 2999:1 3449:1 11405:1 22641:1 24535:1 #
0.041994728791712065962826727627544 2:1 6:2 9:2 18:1 24:1 29:1 101:1 184:1 426:1 595:1 649:1 8638:1 #
0.095066922858689020814360048916569 2:1 6:2 18:1 22:1 26:1 987:1 1427:1 1668:1 #
0.095066922858689020814360048916569 2:1 5:1 6:2 9:1 10:1 13:1 18:1 32:1 195:1 340:1 912:1 1003:1 1234:1 #
-0.095066922858689020814360048916569 2:1 4:1 6:2 9:1 18:1 30:1 69:1 159:1 357:1 396:1 408:1 #
-0.095066922858689020814360048916569 2:1 6:2 9:1 18:1 24:1 33:1 66:1 96:1 126:1 1109:1 4120:1 4712:1 5655:1 7550:1 #
-0.095066922858689020814360048916569 2:1 5:1 9:1 13:1 32:1 80:1 #
-0.095066922858689020814360048916569 2:1 4:1 5:1 6:2 19:1 22:1 26:1 66:1 98:1 199:1 274:1 720:1 #
0.095066922858689020814360048916569 2:1 5:1 11:1 12:1 13:1 23:1 46:1 55:1 86:1 149:1 157:1 227:1 #
0.070156030695250656825656676573999 2:1 4:1 16:1 25:1 42:1 206:1 805:1 5206:1 #
0.095066922858689020814360048916569 2:1 5:1 12:1 13:1 41:1 297:1 419:1 2118:1 #
-0.095066922858689020814360048916569 2:1 11:2 12:1 15:1 16:1 21:1 36:1 68:1 #
-0.095066922858689020814360048916569 2:1 11:2 12:1 16:1 21:1 36:1 68:1 #
-0.095066922858689020814360048916569 2:1 11:2 12:2 16:1 36:1 64:1 67:1 #
-0.095066922858689020814360048916569 2:1 5:1 12:1 13:1 32:1 55:1 #
0.03648537109215262835837378929682 2:1 5:1 6:3 10:1 18:2 19:1 41:1 62:1 323:1 396:1 888:1 948:1 15386:1 #
0.095066922858689020814360048916569 2:1 6:1 11:1 642:1 705:1 738:1 #
-0.095066922858689020814360048916569 6:1 7:1 21:1 22:1 26:1 1784:1 #
0.022960502605000189524364628823605 2:1 10:1 67:1 123:1 1490:1 3858:1 #
-0.095066922858689020814360048916569 4:1 5:1 6:2 9:1 34:1 63:1 87:1 97:1 206:2 550:2 565:1 #
0.094392076132873314886495563769131 2:1 18:1 23:1 623:1 3473:1 6221:1 #
0.095066922858689020814360048916569 2:1 11:2 12:2 37:1 3097:1 11303:1 #
0.095066922858689020814360048916569 2:1 11:2 12:1 27:1 308:1 392:1 2647:1 #
0.095066922858689020814360048916569 2:2 4:1 9:1 10:1 11:1 12:1 30:1 40:1 99:1 301:1 758:1 9613:1 #
0.095066922858689020814360048916569 2:1 4:1 5:1 9:2 11:1 16:1 21:1 67:1 68:1 180:1 267:1 #
0.095066922858689020814360048916569 4:1 5:1 6:1 9:1 15:1 17:1 30:1 46:1 96:1 272:1 274:1 1157:1 #
0.095066922858689020814360048916569 2:1 4:1 5:1 6:2 15:1 29:2 34:1 316:1 1311:1 #
-0.095066922858689020814360048916569 7:1 9:1 13:1 20:1 23:2 85:1 112:1 644:1 #
-0.095066922858689020814360048916569 9:1 15:1 23:1 62:1 82:1 102:1 110:1 367:1 1647:1 #
-0.095066922858689020814360048916569 2:1 5:1 9:1 39:1 91:1 381:1 #
-0.095066922858689020814360048916569 9:1 15:1 18:1 23:2 41:1 61:1 74:1 90:1 91:1 143:1 361:1 #
-0.095066922858689020814360048916569 2:1 5:1 12:1 13:1 44:1 237:1 #
0.095066922858689020814360048916569 2:3 5:2 6:1 39:1 40:1 2517:1 2732:1 #
0.095066922858689020814360048916569 2:1 10:1 24:1 66:1 91:1 96:1 253:1 443:1 1855:1 #
-0.095066922858689020814360048916569 2:1 10:1 11:1 12:1 105:1 2611:1 5150:1 #
0.095066922858689020814360048916569 2:1 5:1 9:1 39:1 74:1 91:1 1191:1 2960:1 #
0.095066922858689020814360048916569 2:1 9:2 23:2 50:1 73:1 107:1 791:1 1326:1 1514:1 1873:1 7738:1 #
-0.095066922858689020814360048916569 2:1 4:1 9:1 17:2 24:2 29:1 37:2 38:1 69:2 276:1 290:2 595:1 #
-0.095066922858689020814360048916569 5:1 10:1 17:1 18:1 39:1 273:1 2529:1 #
-0.095066922858689020814360048916569 2:1 5:2 26:1 37:1 39:2 40:1 285:1 388:1 2377:1 #
0.095066922858689020814360048916569 2:2 9:1 15:1 20:1 23:1 75:1 301:1 3080:1 4331:1 7615:1 19779:1 #
0.095066922858689020814360048916569 2:1 6:1 10:1 11:1 19:1 23:2 272:1 697:1 2379:1 3556:1 #
0.095066922858689020814360048916569 2:2 4:1 9:2 12:1 20:1 106:1 129:1 301:1 1560:1 7880:1 #
-0.095066922858689020814360048916569 2:1 20:2 23:2 37:1 58:1 118:1 219:1 980:1 1952:1 #
-0.095066922858689020814360048916569 6:1 9:2 20:1 23:1 59:1 232:1 448:1 #
-0.095066922858689020814360048916569 2:3 9:1 11:1 23:1 29:1 36:1 56:1 64:1 91:1 106:1 #
-0.095066922858689020814360048916569 2:1 6:1 9:2 12:1 22:2 61:1 92:1 115:1 120:1 161:1 3099:1 #
0.095066922858689020814360048916569 2:1 5:1 9:1 39:1 91:1 3150:1 #
0.095066922858689020814360048916569 2:1 5:3 17:2 25:1 37:1 39:1 69:1 77:1 81:1 104:2 105:1 116:1 644:1 667:1 1563:1 #
0.095066922858689020814360048916569 5:2 14:1 35:1 37:1 39:1 143:1 #
-0.095066922858689020814360048916569 2:1 4:2 5:2 10:1 41:1 53:2 62:1 67:1 84:1 102:1 197:1 359:1 1513:1 #
-0.095066922858689020814360048916569 2:1 4:2 5:3 13:1 17:2 38:2 39:1 44:2 160:1 165:2 #
-0.067158822575352272732374103725306 2:1 4:2 5:3 17:2 21:1 74:1 656:3 1695:3 #
-0.095066922858689020814360048916569 2:1 5:2 6:1 9:1 12:1 18:1 25:1 27:1 31:1 53:1 67:1 75:1 118:1 267:1 404:1 2952:1 #
0.095066922858689020814360048916569 2:1 4:1 5:1 18:1 118:1 129:1 203:1 789:1 #
0.095066922858689020814360048916569 2:1 5:1 6:1 41:1 754:1 1431:1 4546:1 #
0.095066922858689020814360048916569 2:1 5:1 9:1 13:1 32:1 80:1 284:1 386:1 #
0.095066922858689020814360048916569 2:1 9:1 24:1 42:1 91:1 811:1 #
0.095066922858689020814360048916569 2:1 11:1 23:1 104:1 132:1 2606:1 #
-0.095066922858689020814360048916569 2:1 9:1 24:1 25:1 29:1 42:1 91:1 203:1 268:1 379:1 #
-0.095066922858689020814360048916569 9:1 10:1 12:1 24:1 30:1 42:1 55:1 60:1 91:1 392:2 420:1 1971:2 #
0.095066922858689020814360048916569 2:1 4:2 5:1 12:1 20:1 21:1 53:1 81:1 84:1 93:1 139:1 234:1 #
0.095066922858689020814360048916569 2:1 4:2 5:2 9:1 20:2 21:1 66:1 95:1 139:1 168:1 195:1 247:1 700:1 #
-0.095066922858689020814360048916569 2:1 4:1 5:1 19:1 237:2 288:1 #
-0.095066922858689020814360048916569 4:1 7:1 20:1 21:1 68:2 143:1 #
0.060838865598390280686746933724862 2:1 5:1 6:1 10:2 18:1 41:2 60:1 67:1 86:1 120:1 308:1 487:1 560:1 716:1 909:1 2047:1 13082:1 #
0.095066922858689020814360048916569 2:1 9:1 10:2 24:1 42:1 62:1 91:1 493:1 5836:1 #
-0.095066922858689020814360048916569 2:1 5:1 12:1 13:1 31:1 44:1 #
-0.095066922858689020814360048916569 2:1 4:1 5:1 16:1 18:1 39:1 42:1 136:1 2287:1 #
0.095066922858689020814360048916569 2:1 24:1 27:1 37:1 42:2 51:1 53:1 68:1 333:1 2815:1 10186:1 #
0.095066922858689020814360048916569 4:1 5:2 6:1 7:1 9:1 30:1 31:1 39:1 42:1 46:1 73:1 162:1 199:1 1608:1 6482:1 #
0.095066922858689020814360048916569 2:1 4:2 5:1 9:1 19:1 29:2 34:2 62:1 129:1 564:1 595:1 605:1 767:1 #
-0.095066922858689020814360048916569 2:1 5:1 9:1 13:1 32:1 80:1 #
0.06847526818332523579346826636538 2:1 5:2 9:1 10:1 12:1 13:1 17:2 18:1 29:1 53:1 74:1 97:1 109:1 145:1 157:1 177:1 215:1 773:1 2951:1 3456:1 15044:1 #
0.095066922858689020814360048916569 2:1 10:1 18:1 23:1 29:1 34:1 77:1 288:1 308:1 #
0.095066922858689020814360048916569 2:1 10:1 11:2 18:1 19:1 23:2 38:1 77:1 396:1 1283:1 1418:1 #
0.072115517925532307552671795747301 4:1 7:1 9:1 13:1 28:1 32:1 80:1 218:1 1394:1 #
0.095066922858689020814360048916569 2:1 10:2 70:1 97:1 115:1 849:2 #
-0.095066922858689020814360048916569 2:1 5:1 20:1 48:1 55:1 62:2 130:1 710:3 3142:1 #
-0.095066922858689020814360048916569 15:1 20:2 23:1 62:2 710:2 #
0.031617965374713820347896131579546 2:1 6:2 18:1 22:1 3247:1 8497:1 13236:1 #
-0.095066922858689020814360048916569 2:1 5:1 9:1 11:1 23:1 74:1 81:1 119:1 144:1 246:1 347:1 #
-0.095066922858689020814360048916569 10:2 15:1 634:2 834:2 #
0.095066922858689020814360048916569 2:1 6:1 33:1 42:1 51:1 24031:1 #
0.095066922858689020814360048916569 6:2 7:1 11:1 21:1 40:1 63:1 91:1 115:1 226:1 582:1 #
-0.033221597439147293462369248118193 2:1 10:1 11:1 23:1 37:1 282:1 782:1 1789:1 #
0.095066922858689020814360048916569 2:1 10:1 19:1 23:1 24:1 34:1 42:1 53:1 183:1 343:1 386:1 542:1 669:1 #
0.063089886105987896813829252096184 2:1 4:1 5:1 6:1 9:1 53:1 55:1 75:1 84:1 127:1 9503:1 #
0.095066922858689020814360048916569 2:1 10:1 23:2 41:1 55:1 62:1 710:1 846:1 #
0.095066922858689020814360048916569 2:1 4:1 10:1 15:1 18:1 19:1 29:1 69:1 110:1 272:1 1328:1 #
0.095066922858689020814360048916569 2:1 4:1 5:2 39:1 62:1 110:1 160:1 710:1 14040:1 #
-0.095066922858689020814360048916569 2:1 4:1 5:1 66:1 111:1 154:1 274:1 #
0.095066922858689020814360048916569 2:1 4:1 5:1 18:1 39:1 480:1 920:1 #
0.095066922858689020814360048916569 6:2 9:1 11:2 12:1 23:1 67:1 330:1 1109:1 3209:1 3660:1 #
0.095066922858689020814360048916569 6:2 25:1 65:1 98:2 199:2 #
0.095066922858689020814360048916569 2:1 6:3 9:1 15:1 23:1 29:1 87:1 136:1 338:1 359:1 560:1 912:1 1358:1 #
-0.095066922858689020814360048916569 7:1 13:1 21:1 53:1 57:1 227:1 #
-0.095066922858689020814360048916569 7:1 12:1 13:1 21:1 53:1 297:1 #
-0.095066922858689020814360048916569 6:1 7:1 21:1 22:1 26:1 1784:1 #
-0.095066922858689020814360048916569 7:1 13:1 21:1 53:1 57:1 112:1 #
0.093773702071945658209628504664579 2:1 4:2 9:1 42:1 46:1 55:1 100:1 152:1 654:1 693:1 1339:1 1636:1 #
0.095066922858689020814360048916569 2:1 4:1 9:1 10:1 11:1 42:1 88:1 91:1 273:1 1695:1 #
-0.095066922858689020814360048916569 2:1 9:1 18:1 24:1 45:1 50:1 61:1 66:1 78:1 #
0.055686431470728249559787315092763 2:1 9:1 12:1 13:1 15:1 25:1 33:1 41:1 57:2 74:1 112:1 602:1 751:1 844:1 2345:1 #
-0.095066922858689020814360048916569 2:1 4:1 5:1 9:1 12:1 84:1 129:1 #
0.095066922858689020814360048916569 6:1 7:1 21:1 23:1 41:1 68:1 333:1 787:1 #
0.095066922858689020814360048916569 7:1 11:1 12:1 21:1 25:1 110:1 #
-0.095066922858689020814360048916569 4:1 5:1 9:1 10:1 55:1 84:1 221:1 343:1 738:1 #
-0.095066922858689020814360048916569 2:1 4:1 5:1 9:1 10:1 11:1 28:1 55:1 68:1 84:1 185:1 221:1 343:1 401:1 738:1 #
-0.095066922858689020814360048916569 4:1 9:1 12:1 19:1 28:1 29:1 31:1 34:1 115:1 249:1 595:1 #
0.095066922858689020814360048916569 2:1 4:1 6:1 42:1 94:1 560:1 #
0.095066922858689020814360048916569 5:1 9:1 21:1 28:1 39:1 68:1 160:1 264:1 539:1 #
0.095066922858689020814360048916569 2:1 5:1 9:1 11:1 13:1 21:1 56:1 57:2 75:2 112:1 290:1 669:1 #
0.095066922858689020814360048916569 2:1 5:1 9:1 10:1 21:2 22:2 36:1 237:1 243:1 910:1 2988:1 3226:1 7704:1 #
-0.095066922858689020814360048916569 2:1 5:1 9:1 30:1 40:1 100:1 155:1 456:1 469:1 2069:1 6100:1 #
-0.095066922858689020814360048916569 40:1 83:1 99:1 117:1 1124:1 1798:1 9636:1 #
-0.095066922858689020814360048916569 6:1 19:1 20:1 40:1 41:1 57:1 70:1 74:1 86:1 139:1 219:1 741:1 #
0.095066922858689020814360048916569 2:1 5:1 9:1 13:1 30:1 32:1 #
0.063843838113266979106263931953436 2:1 6:1 10:1 15:1 18:1 24:1 109:1 362:1 624:1 1568:1 3391:1 10076:1 #
0.095066922858689020814360048916569 2:1 4:1 11:1 35:1 70:1 5287:1 5745:1 #
-0.095066922858689020814360048916569 2:1 6:1 10:2 15:1 18:2 22:1 288:2 974:3 #
0.095066922858689020814360048916569 4:2 7:1 11:1 13:1 42:1 207:1 363:1 1551:1 #
0.095066922858689020814360048916569 2:1 4:1 5:1 34:1 35:1 93:1 98:1 107:1 110:1 832:1 #
-0.095066922858689020814360048916569 2:1 4:1 5:1 9:1 13:1 29:1 135:1 165:1 595:1 #
0.019177841621190024057330703044499 2:1 10:1 24:1 40:1 78:1 1757:1 2323:1 4108:1 #
0.095066922858689020814360048916569 2:2 6:1 10:1 18:1 22:1 70:1 166:1 301:1 927:1 1592:1 2329:1 2702:1 3163:1 4125:1 #
0.095066922858689020814360048916569 2:1 10:1 11:1 12:1 13:1 26:1 167:1 272:1 463:1 4653:1 #
0.095066922858689020814360048916569 2:1 5:1 6:1 9:1 10:2 11:1 15:1 18:1 38:1 94:1 143:1 272:1 277:1 1693:1 3534:1 #
0.095066922858689020814360048916569 2:1 10:1 21:1 22:2 23:1 94:1 674:1 716:1 #
-0.095066922858689020814360048916569 2:1 6:1 140:1 269:1 662:1 5236:1 #
-0.095066922858689020814360048916569 2:1 29:1 64:1 97:1 517:1 1403:1 #
-0.095066922858689020814360048916569 2:1 19:1 27:1 212:1 623:1 21933:1 #
-0.095066922858689020814360048916569 10:2 22:1 25:1 169:1 426:1 1255:2 2899:2 #
0.095066922858689020814360048916569 2:1 4:1 5:2 9:2 19:1 39:1 86:1 149:1 347:1 2321:1 #
0.095066922858689020814360048916569 2:1 6:1 19:1 22:1 70:1 745:1 2843:1 #
-0.095066922858689020814360048916569 2:1 4:2 6:1 15:1 19:1 63:3 89:1 217:1 846:3 #
0.095066922858689020814360048916569 2:1 5:1 9:1 10:1 13:1 17:2 18:1 28:1 32:1 46:1 153:1 180:1 275:1 671:1 901:1 #
0.095066922858689020814360048916569 2:1 9:1 10:1 11:1 12:1 13:1 24:1 32:1 46:1 229:1 348:1 1298:1 #
0.095066922858689020814360048916569 2:1 5:1 9:1 13:1 21:1 31:1 32:1 46:1 269:1 #
0.095066922858689020814360048916569 2:1 5:1 12:1 13:1 18:1 32:1 38:1 70:1 439:1 459:1 #
-0.095066922858689020814360048916569 2:1 11:1 18:1 45:1 50:1 61:1 83:1 #
-0.095066922858689020814360048916569 2:1 5:2 178:1 271:1 342:1 #
0.067240673013863813678447911570402 2:1 11:1 138:1 1073:1 1356:1 8490:1 #
-0.095066922858689020814360048916569 2:1 11:1 18:1 45:1 50:1 61:1 83:1 #
-0.095066922858689020814360048916569 2:1 4:1 5:1 18:1 39:1 445:1 #
0.095066922858689020814360048916569 2:1 6:1 9:2 67:1 267:1 322:1 401:1 679:1 12299:1 #
0.095066922858689020814360048916569 2:1 5:1 12:1 105:1 217:1 323:1 921:1 3335:1 9115:1 #
-0.095066922858689020814360048916569 2:1 10:1 11:1 12:1 37:1 1172:1 #
0.095066922858689020814360048916569 2:2 4:1 5:2 13:2 27:1 29:1 32:1 40:1 41:1 61:1 91:1 215:1 273:1 538:1 2156:1 #
-0.095066922858689020814360048916569 2:1 5:1 13:1 16:1 30:1 215:1 247:1 #
-0.095066922858689020814360048916569 2:1 5:1 13:1 32:1 739:1 6175:1 #
0.00013437512136049180582614281931342 2:1 9:1 10:2 12:1 16:1 18:1 38:1 63:1 78:1 98:1 748:1 1293:1 2489:1 9220:1 10378:1 #
-0.095066922858689020814360048916569 2:1 5:1 12:1 13:1 32:1 80:1 #
0.095066922858689020814360048916569 2:1 6:1 9:1 10:1 18:1 36:1 550:1 835:1 1640:1 1733:1 #
0.095066922858689020814360048916569 2:1 6:1 9:1 10:1 57:1 66:1 96:1 101:1 241:1 358:1 16872:1 23993:1 #
-0.095066922858689020814360048916569 2:2 6:2 9:1 10:1 18:1 22:1 301:1 568:1 1054:1 2357:1 9009:1 #
-0.095066922858689020814360048916569 2:1 6:2 9:1 10:1 18:1 340:1 406:1 972:1 17194:1 #
0.095066922858689020814360048916569 2:1 5:2 13:1 21:1 32:1 39:1 46:1 68:1 2923:1 #
0.095066922858689020814360048916569 5:2 13:1 14:1 32:1 46:1 74:1 79:1 139:1 158:1 7968:1 #
0.095066922858689020814360048916569 2:1 5:2 13:1 32:1 37:1 39:1 46:1 545:1 #
0.095066922858689020814360048916569 2:1 24:1 37:1 42:1 45:1 200:1 683:1 #
0.095066922858689020814360048916569 2:1 6:3 9:1 18:1 1063:1 1279:1 2258:1 3519:1 #
0.095066922858689020814360048916569 2:1 6:1 9:1 18:1 792:1 1138:1 3766:1 4608:1 5311:1 #
0.095066922858689020814360048916569 4:1 7:1 10:1 13:1 30:1 32:1 164:1 201:1 #
-0.095066922858689020814360048916569 6:1 23:1 27:1 41:1 70:1 86:1 371:1 382:1 #
-0.095066922858689020814360048916569 2:1 6:2 19:1 41:1 57:1 76:1 138:1 184:1 263:1 270:1 #
0.095066922858689020814360048916569 2:1 4:1 5:2 21:2 22:1 46:1 187:1 #
0.095066922858689020814360048916569 2:1 5:3 39:1 46:1 145:1 281:1 #
0.095066922858689020814360048916569 2:1 5:3 46:3 #
-0.041456402129169844794631671902607 2:1 10:1 11:1 19:1 23:1 78:1 82:1 356:1 1115:1 #
-0.095066922858689020814360048916569 2:1 10:1 11:1 57:1 78:1 2078:1 #
-0.095066922858689020814360048916569 2:1 5:1 9:1 39:1 91:1 381:1 #
0.095066922858689020814360048916569 14:1 29:1 45:1 83:1 557:1 8072:1 #
-0.095066922858689020814360048916569 4:1 5:1 13:1 44:1 276:1 290:1 #
-0.095066922858689020814360048916569 11:2 12:1 14:1 16:1 21:1 36:1 68:1 #
-0.095066922858689020814360048916569 6:3 11:1 18:1 19:1 22:1 422:1 1321:1 1575:2 #
0.095066922858689020814360048916569 2:1 5:1 9:1 10:1 13:2 16:1 46:1 73:1 74:1 80:1 112:1 182:1 214:1 215:1 256:1 #
0.095066922858689020814360048916569 2:1 5:2 10:1 12:1 13:1 39:1 41:1 46:1 55:1 112:1 160:1 810:1 #
0.095066922858689020814360048916569 2:1 9:1 13:1 29:1 30:1 35:1 40:1 45:1 53:1 57:3 58:1 74:1 84:2 98:1 740:1 862:1 1021:1 1391:1 2030:1 22284:1 #
0.083182500478855420089630001712067 2:1 5:1 10:1 70:1 169:2 222:1 7591:1 20151:1 22595:1 #
-0.095066922858689020814360048916569 2:1 4:2 5:2 9:1 16:1 46:1 58:1 67:1 80:1 132:1 139:1 #
0.095066922858689020814360048916569 2:1 6:3 11:1 97:1 261:1 5878:1 7617:1 21072:1 21540:1 #
0.095066922858689020814360048916569 6:1 7:1 11:1 21:1 33:1 91:1 1784:1 #
-0.095066922858689020814360048916569 2:1 6:2 15:1 17:1 69:1 835:2 1265:1 #
-0.095066922858689020814360048916569 4:1 6:1 7:1 14:1 21:1 43:1 210:1 1784:1 #
-0.095066922858689020814360048916569 2:1 6:1 10:1 11:1 25:1 33:1 40:1 48:1 57:1 96:1 98:1 166:1 550:1 #
-0.095066922858689020814360048916569 2:1 10:1 11:1 37:1 57:1 157:1 397:1 640:1 #
0.095066922858689020814360048916569 2:1 4:2 5:1 9:1 13:1 16:1 20:1 39:1 55:1 118:1 160:1 180:1 242:1 824:1 1678:1 #
0.095066922858689020814360048916569 4:1 9:1 54:1 69:1 760:1 787:1 #
0.095066922858689020814360048916569 2:1 5:2 9:1 21:1 29:1 37:1 39:1 360:1 #
0.095066922858689020814360048916569 2:1 4:1 9:1 12:1 13:1 18:1 30:1 32:1 132:1 1615:1 #
0.095066922858689020814360048916569 2:1 4:1 5:1 9:2 12:1 13:1 29:1 32:1 34:1 63:1 74:1 328:1 559:1 1254:1 #
-0.095066922858689020814360048916569 2:1 4:1 5:1 9:2 24:1 25:1 30:1 31:1 91:1 109:1 128:1 178:1 #
0.095066922858689020814360048916569 9:1 11:2 14:1 15:1 16:1 21:1 45:1 57:2 203:1 216:1 #
0.095066922858689020814360048916569 2:1 11:2 17:1 35:1 37:1 57:2 281:1 #
0.095066922858689020814360048916569 2:1 5:1 10:1 11:1 19:1 41:1 55:1 176:1 422:1 438:1 1971:1 3613:1 #
-0.095066922858689020814360048916569 5:1 7:1 10:1 11:1 13:1 16:1 18:1 25:1 57:2 81:1 104:1 123:1 152:1 156:1 167:1 569:1 #
-0.095066922858689020814360048916569 2:1 11:1 16:1 21:1 57:1 216:1 #
-0.095066922858689020814360048916569 2:1 11:1 29:1 36:1 57:1 64:1 162:1 #
0.095066922858689020814360048916569 2:1 4:1 9:1 10:1 30:1 1009:1 13812:1 #
-0.095066922858689020814360048916569 4:1 6:1 7:1 14:1 21:1 43:1 210:1 1784:1 #
0.095066922858689020814360048916569 2:1 4:1 5:1 9:2 11:1 12:1 15:1 20:1 68:1 80:1 96:1 128:1 180:1 2822:1 #
0.095066922858689020814360048916569 2:1 4:1 5:1 6:1 9:1 22:1 91:1 109:1 178:1 484:1 732:1 5266:1 #
-0.095066922858689020814360048916569 2:1 4:1 5:1 18:1 39:1 920:1 #
-0.095066922858689020814360048916569 2:1 4:1 5:1 9:2 15:1 20:1 80:1 116:1 644:2 #
-0.095066922858689020814360048916569 2:1 4:2 5:2 9:2 12:1 68:1 107:1 180:1 187:1 #
0.095066922858689020814360048916569 2:1 5:1 10:1 25:1 48:1 66:1 98:1 166:2 706:1 #
0.095066922858689020814360048916569 2:1 10:1 23:1 104:1 267:1 409:1 #
0.095066922858689020814360048916569 2:1 18:1 23:1 34:1 59:1 198:1 #
-0.095066922858689020814360048916569 2:1 5:1 10:1 13:1 25:1 35:1 96:1 98:1 166:1 200:1 242:1 #
-0.095066922858689020814360048916569 2:1 6:1 15:1 18:1 19:2 23:2 40:1 41:2 82:2 139:1 203:1 256:1 7563:1 #
-0.095066922858689020814360048916569 2:1 6:1 10:1 19:1 22:1 47:1 580:2 #
0.095066922858689020814360048916569 2:1 4:2 9:3 20:2 26:1 30:1 31:1 42:1 53:1 58:1 80:1 91:1 353:1 #
0.095066922858689020814360048916569 2:1 4:1 5:1 9:3 10:1 11:1 16:1 20:1 21:1 66:1 95:1 96:1 156:1 168:1 266:1 #
0.095066922858689020814360048916569 2:1 5:2 6:1 9:2 33:1 41:1 45:1 61:1 78:1 154:1 550:1 823:1 2142:1 10615:1 #
0.095066922858689020814360048916569 1:1 2:1 4:1 5:1 13:2 44:1 237:1 242:1 274:1 #
0.095066922858689020814360048916569 4:1 7:1 13:1 32:1 55:1 88:1 #
-0.095066922858689020814360048916569 2:1 5:1 6:1 9:2 48:1 50:1 66:1 78:1 1174:1 3660:1 #
-0.095066922858689020814360048916569 2:1 4:1 5:1 34:1 97:1 206:1 #
0.095066922858689020814360048916569 2:1 35:5 #
0.043675162635100406305355136282742 4:1 6:1 7:1 42:1 1180:1 2962:1 #
0.095066922858689020814360048916569 2:1 6:2 10:1 12:1 18:1 22:1 25:1 98:1 123:1 443:1 547:1 #
0.050556929274099951521215245975327 2:1 11:1 13:1 15:1 26:1 167:1 734:1 5829:1 #
-0.095066922858689020814360048916569 2:1 4:1 5:1 13:1 44:1 218:1 #
-0.095066922858689020814360048916569 2:1 6:2 15:1 25:1 43:2 211:1 2583:2 4257:1 12445:2 #
-0.095066922858689020814360048916569 2:1 15:1 20:2 23:2 63:1 679:2 #
0.095066922858689020814360048916569 2:1 5:2 9:2 13:1 30:1 44:1 50:1 7861:1 #
0.095066922858689020814360048916569 2:1 4:1 5:1 9:2 10:1 19:1 50:1 238:1 406:1 1283:1 1587:1 1993:1 #
0.094471616489855650411477938632743 2:1 11:1 50:1 61:1 162:1 205:1 268:1 1148:1 #
-0.095066922858689020814360048916569 2:1 4:1 5:1 13:2 44:2 79:1 225:2 #
0.0053917249695479927545926912557661 2:1 6:1 50:1 622:1 1179:1 1504:1 #
0.095066922858689020814360048916569 2:1 23:1 41:1 70:1 99:1 129:1 143:1 162:1 1491:1 6594:1 #
-0.037511908261122550722888036034419 11:1 12:1 14:1 28:1 37:1 734:1 #
0.095066922858689020814360048916569 2:1 6:2 18:1 23:1 485:1 1919:1 2369:1 3117:1 3312:1 #
0.095066922858689020814360048916569 2:1 5:1 6:1 11:1 15:1 23:2 34:1 527:1 555:1 825:1 913:1 4032:1 #
-0.095066922858689020814360048916569 2:1 6:2 19:1 22:1 1766:2 #
-0.095066922858689020814360048916569 2:1 6:2 15:1 18:1 19:1 23:1 25:1 40:1 41:1 113:1 352:1 568:1 1063:2 1483:2 3365:1 #
0.095066922858689020814360048916569 2:1 4:2 13:2 32:2 50:1 79:2 91:1 1411:1 #
0.095066922858689020814360048916569 4:1 5:1 9:1 10:1 13:2 14:1 15:1 20:1 30:1 32:1 44:1 90:1 119:1 4665:1 #
-0.095066922858689020814360048916569 2:1 10:1 11:1 19:1 23:1 78:1 82:1 422:1 470:1 #
0.095066922858689020814360048916569 2:1 4:2 5:1 9:1 13:1 32:1 37:1 46:1 #
0.095066922858689020814360048916569 2:1 4:2 9:1 11:1 13:1 16:1 32:1 38:1 61:1 80:1 94:1 1540:1 1812:1 #
-0.095066922858689020814360048916569 4:2 5:1 13:1 14:1 20:1 32:1 34:1 53:1 614:2 #
-0.095066922858689020814360048916569 2:1 4:1 5:1 9:1 10:1 16:1 29:1 30:1 95:1 241:1 255:2 5053:1 #
-0.095066922858689020814360048916569 4:1 9:1 13:1 20:1 32:1 903:2 2944:1 #
0.02212449887837706838378259988076 2:1 5:1 16:1 19:1 41:1 1290:1 1523:1 #
0.046966635430850743604391794860931 2:1 24:1 66:1 98:1 179:2 199:1 1164:1 1981:2 2708:1 3674:1 19118:1 22030:1 23202:1 #
-0.095066922858689020814360048916569 2:1 4:1 5:1 9:2 80:1 180:1 #
0.095066922858689020814360048916569 2:1 6:1 11:1 19:1 23:1 40:1 2138:1 2513:1 3453:1 8888:1 #
0.095066922858689020814360048916569 2:1 6:1 9:1 11:1 12:1 19:1 524:1 2053:1 9047:1 17553:1 #
-0.095066922858689020814360048916569 2:1 6:2 15:1 19:1 109:1 615:1 1126:1 1217:1 #
0.095066922858689020814360048916569 2:1 4:1 5:1 9:1 20:1 139:1 267:1 #
0.095066922858689020814360048916569 4:2 17:1 24:1 83:1 99:1 129:1 290:1 #
-0.095066922858689020814360048916569 2:1 5:1 19:1 28:1 29:1 34:1 62:1 410:1 455:1 945:1 #
-0.095066922858689020814360048916569 2:1 5:1 13:1 32:1 55:1 435:1 #
0.095066922858689020814360048916569 2:1 5:1 10:1 11:1 13:1 24:1 32:1 43:1 53:1 129:1 1967:1 2122:1 #
0.095066922858689020814360048916569 5:2 9:1 19:1 41:1 63:1 563:1 751:1 846:1 2885:1 #
-0.095066922858689020814360048916569 2:1 4:1 5:1 6:1 19:1 34:1 75:1 217:1 #
-0.095066922858689020814360048916569 2:1 10:1 18:1 19:1 23:1 41:1 82:1 249:1 620:1 716:1 #
0.03973871827094138664548950146127 2:1 4:2 11:1 12:1 15:1 23:1 67:1 81:1 158:1 780:1 1090:1 #
0.095066922858689020814360048916569 2:1 6:2 11:1 18:1 57:1 58:1 1479:1 5861:1 #
0.072452947693282337970899220636056 6:2 326:1 352:1 1670:1 2193:1 14075:1 17948:1 #
0.095066922858689020814360048916569 2:1 6:2 9:2 18:1 109:1 129:1 633:1 1744:1 1759:1 2624:1 3497:1 7880:1 14261:1 #
-0.095066922858689020814360048916569 2:1 6:2 75:1 125:1 153:2 1485:4 #
0.095066922858689020814360048916569 2:1 4:1 5:1 9:1 10:2 19:1 34:1 315:1 343:1 2391:1 3633:1 #
0.056009765387115321988442673273312 2:1 9:1 10:1 13:1 18:1 23:2 38:1 41:1 76:1 135:1 396:1 427:1 476:1 749:1 1418:1 #
-0.095066922858689020814360048916569 2:1 5:1 9:2 26:1 40:1 61:1 66:1 73:1 96:1 347:1 574:1 823:1 1328:1 #
-0.095066922858689020814360048916569 2:1 9:1 13:1 24:1 30:1 32:1 148:1 209:1 883:1 998:1 #
-0.095066922858689020814360048916569 2:1 9:1 11:1 12:2 22:1 73:1 419:2 820:1 #
-0.095066922858689020814360048916569 9:1 10:1 12:2 29:1 51:1 53:1 101:1 107:1 416:1 1203:1 #
-0.095066922858689020814360048916569 2:1 6:2 10:1 17:2 18:2 30:1 275:1 2908:1 3069:1 4248:1 4379:1 9550:1 #
0.095066922858689020814360048916569 4:1 9:1 12:1 42:1 91:1 409:1 599:1 #
0.095066922858689020814360048916569 2:1 4:1 5:1 9:1 12:1 13:1 32:1 40:1 80:1 409:1 #
0.095066922858689020814360048916569 2:1 11:1 12:1 16:1 37:1 48:1 57:1 82:1 734:1 7806:1 #
-0.095066922858689020814360048916569 2:1 4:2 5:2 15:1 158:1 526:2 #
-0.095066922858689020814360048916569 2:1 4:1 15:1 20:1 62:1 3443:2 #
